-0.020066334	0.01781812	0.031505335	-0.01808257	-0.041314352	0.035670076	0.009178411	-0.035627116	-0.04091202	0.014518347	-0.044579055	-0.032320917	-0.015524447	-0.007871427	0.04199979	-0.029623045	-0.018554937	-0.04955672	0.008567356	0.0013629794	-0.02234726	-0.015221298	-0.04364108	0.041509677	-0.030967176	0.02024113	-0.044283785	-0.013370968	-0.03718189	-0.005959343	-0.009079505	0.047277536	-0.023835111	-0.01697608	-0.039893735	0.030968752	-0.037227523	-0.044593107	0.03433657	-0.023508107	0.027720083	-0.027672768	-0.009137332	0.03944106	0.022350084	-0.01574117	0.021878768	-0.031712547
0.18509784	0.020536968	-0.11560972	-0.058718372	0.07802919	0.015819812	-0.035533343	-0.12854138	0.15767139	0.004329157	-0.03349903	0.2309787	-0.13336477	-0.089330316	0.28302348	-0.06394796	-0.19830075	-0.23992114	0.14372066	-0.2236057	-0.04848959	-0.20723397	0.003057245	0.24013613	0.19142559	-0.40817764	-0.007570339	-0.31913266	0.13069531	0.33553088	-0.012076517	-0.10506126	-0.24156848	-0.36059898	0.22618447	0.33240315	-0.3705663	-0.10775356	-0.107881084	0.39412716	-0.05402995	0.30884346	0.06169588	0.12360412	0.13944352	0.35512576	0.2710313	-0.58240426
0.12681963	0.41715574	-0.07562653	-0.11293858	0.1397526	0.123921216	0.060492277	0.21691515	-0.16931543	-0.13464218	0.13434692	-0.27499142	-0.13401291	0.11491555	0.1282371	-0.49249035	-0.36162305	-0.26147074	-0.18290223	-0.33836263	0.13709225	-0.08218427	-0.14104877	0.018645985	-0.4424999	0.07305209	0.067355245	0.21780486	0.05173672	0.049904592	-0.15640078	0.37527782	-0.045552284	0.35373726	0.24806023	0.29857254	0.19545461	-0.12709154	0.12351906	-0.2380369	-0.5295657	0.19661176	-0.00458788	0.07646406	0.09030415	-0.23631598	-0.14349692	-0.118265145
0.19984964	-0.14684342	-0.06973914	-0.08782648	-0.2746337	0.17343202	-0.101956084	-0.10826451	-0.16463599	0.131452	-0.20758104	0.04611241	-0.08214623	-0.1470282	0.13481142	-0.38306656	-0.19244462	-0.071320064	0.29692647	-0.33153787	0.23028389	-0.24710575	-0.035349835	0.08984445	0.2938042	-0.2582455	-0.18016799	-0.37492436	0.054969426	0.27886704	0.12558465	-0.053487264	-0.04937676	-0.2332474	0.1556411	0.16801679	-0.06889265	0.094101265	0.010151159	0.37354034	-0.09201841	-0.052602664	0.26049468	0.44216904	0.06684714	0.117315054	0.33722892	0.108606294
0.05580585	0.24675126	-0.3890428	-0.11546938	-0.074689105	-0.09128301	-0.1518103	-0.09321036	0.010892569	-0.35535923	-0.1323546	-0.13255775	0.017904354	0.2620178	0.023606556	-0.3950021	0.03014493	-0.38009578	-0.36847785	-0.25018498	-0.39068425	-0.08522445	-0.2816036	0.019638218	-0.15908755	-0.06574289	-0.08704885	0.3659881	-0.3128216	-0.063556604	-0.17832142	0.19037257	0.15425861	0.22182658	0.46251035	0.02696982	0.21593903	-0.08068644	0.17533137	-0.18483496	-0.15605018	0.06978915	-0.26118994	0.24014723	0.20449248	-0.30178058	0.09606655	0.008477392
0.17893218	7.832429e-05	-0.17817198	-0.27780792	-0.19678777	0.22075449	-0.009481546	-0.059798874	0.17307748	-0.2224109	-0.29494467	-0.26236835	0.074107945	0.33645877	-0.07492276	-0.22833198	-0.14091505	-0.23016578	-0.05039351	-0.42761302	-0.0176253	0.017891444	-0.06215264	0.21737568	-0.270517	-0.098585404	0.1033575	0.31144688	-0.22786008	-0.1506688	0.07781687	0.3937633	0.21648276	0.36105555	0.23344782	0.2898594	-0.12025746	0.19535993	-0.17180152	-0.25109884	-0.741605	-0.058351304	-0.20757173	0.27770206	0.08827851	-0.30070466	0.090885006	-0.28587884
0.3061183	0.2868334	-0.14980705	-0.3403351	-0.35036004	-0.10198579	0.15702307	0.27650452	0.31324157	-0.026281673	-0.13019474	-0.09095122	0.20857947	0.20630956	0.41282317	-0.23820949	0.024491329	0.11992475	0.21011783	-0.12862955	-0.2302022	-0.14828753	-0.018721722	0.1514562	0.026936827	-0.31151912	-0.17258644	-0.13012762	0.21759112	-0.029382842	0.013059839	0.24949346	-0.24641347	-0.08786869	-0.03511022	0.06618325	-0.18298659	0.037997477	0.4911222	-0.18886468	-0.11734124	-0.13424739	0.20708698	0.22866614	0.17798594	-0.19578522	-0.20862319	-0.3984705
0.0067871907	0.2070646	-0.550937	-0.2444643	-0.20364404	-0.15322669	0.39131653	-0.004805015	0.13048948	-0.03797511	0.08403982	0.21440288	-0.08223181	0.41395167	0.5433265	0.13443753	-0.19890916	-0.13016756	0.15497893	-0.03740397	0.12277528	-0.31568968	-0.44092527	0.51683944	-0.08382206	0.07296832	0.19869864	0.06145753	0.13564187	-0.21588558	-0.058481496	0.15490058	-0.36923462	-0.17741005	0.2590594	0.56144136	-0.055504672	0.22956876	0.16854236	-0.08626621	-0.15801458	0.31820577	-0.12108759	0.28563273	0.33061612	0.24293019	0.12906687	-0.1547693
0.034254465	0.20414294	-0.08176671	-0.33516303	-0.018390749	0.17583328	0.24802443	-0.30875504	0.44562986	0.098938994	0.07273848	-0.109954916	0.09222898	-0.18758193	0.32165617	0.23182471	0.11301768	0.02353316	0.24628112	-0.11868341	-0.25799978	-0.30530775	0.099396825	-0.20918734	-0.03552548	-0.21204755	-0.26195785	0.08620117	-0.2169325	0.09306874	0.20148358	0.086277544	-0.12636435	-0.40182978	-0.045124546	0.21770748	0.21699204	-0.18734716	-0.30923477	0.24955414	0.14066756	0.027954986	0.18422982	0.27606934	0.08677094	-0.10745223	0.038448647	0.102080666
-0.07371529	0.28763053	-0.20360483	-0.0144922305	-0.18228038	-0.040441994	-0.2475078	0.17445053	0.19726206	-0.20804822	-0.12863943	0.15086551	-0.055896975	-0.22285451	-0.0169499	0.1658435	-0.037065547	-0.078738734	-0.23867948	0.24225724	0.16729127	-0.11221668	-0.070681386	-0.2090059	-0.1067195	-0.19105859	-0.27592847	-0.04674088	-0.021162082	0.024939634	-0.10400204	-0.43994698	-0.2575803	-0.09904174	0.2472671	0.02627827	-0.183156	0.15511541	-0.064203404	0.23247787	-0.20680042	0.36850917	0.09820055	-0.22166146	0.26160914	0.14659475	-0.18521439	-0.03362455
0.16334747	0.3509738	0.0884306	-0.078709036	-0.11711905	-0.47134754	0.13756682	0.28228846	0.33000013	-0.045666482	-0.1833517	-0.011945071	0.1743028	0.26859587	0.14648092	-0.2671749	0.1512702	-0.0012458996	-0.1068918	-0.15273653	-0.047453474	-0.07658788	-0.049108546	0.084635064	-0.023416387	-0.39578518	-0.051751077	-0.136456	0.21430105	0.20048302	-0.4022151	-0.022291843	-0.44110215	-0.07458099	-0.107709445	0.6021571	-0.011860301	0.27307653	0.15252925	0.18171768	-0.47361854	-0.17753203	-0.16426174	0.47086474	-0.023283005	-0.09765474	-0.024236223	-0.35170728
-0.03557758	0.08601465	0.08396814	0.055141665	-0.16656448	0.01649356	-0.042673532	0.11244911	0.27631253	0.17558335	-0.25364417	-0.19957857	-0.12097723	0.1034747	0.11459123	-0.1046859	-0.09164914	-0.17299226	-0.42417482	-0.27399015	-0.15222186	-0.114726454	0.06291273	0.34067845	0.051453095	-0.026373962	0.30223814	0.2524283	0.3747512	-0.061503407	-0.25526887	0.29791617	0.048277106	0.23842636	0.123134	0.13528687	0.13046035	0.28475797	0.117002204	0.018887548	-0.634786	0.08295598	-0.007103408	0.15998645	-0.14055713	-0.09893945	0.13933414	-0.15811284
0.03192998	0.29912144	0.16222346	-0.16744916	0.18872781	-0.09772607	0.26509717	0.03736693	-0.23605536	-0.0998433	-0.0842956	-0.2366024	0.025600804	0.14004521	-0.17346711	0.07136846	0.23872496	-0.1097313	-0.025038587	-0.2589742	-0.40399206	-0.1746641	0.23528239	-0.20764934	-0.059773393	-0.10146522	-0.1962086	-0.48697597	-0.01486832	-0.13056028	-0.6281307	-0.28830725	-0.045761876	0.27605373	-0.26382345	-0.22643968	-0.38966438	-0.22739829	-0.11384533	0.4742884	-0.2631979	-0.36347836	-0.05972042	0.017291803	0.17057388	0.21506754	0.19283265	-0.099395625
-0.018053254	-0.21992895	-0.3255384	-0.09550274	-0.5017916	-0.2990229	0.37352285	0.13297503	0.21172275	0.3457962	0.03769665	0.16761772	0.039634634	0.23293091	0.61671567	0.00038096233	-0.347529	0.004120449	0.04042514	-0.22478153	-0.06490942	0.06402612	-0.25972244	-0.05256344	-0.0021691453	-0.334376	-0.3215598	-0.1491729	0.06007386	-0.16667612	-0.36435536	0.3624898	-0.013469247	-0.361486	0.26725128	0.15039904	-0.26346195	-0.13166222	0.38416174	0.028507449	-0.0707282	0.15131567	-0.15500613	0.027275492	0.25335577	-0.25492254	0.15150155	-0.3074064
-0.111377575	0.023505451	-0.13865452	0.13884325	-0.23585127	-0.47969207	0.2487569	0.08916498	0.20042422	0.122295596	-0.005466566	0.0034580203	0.18432981	0.5458796	0.69230425	-0.59371895	-0.11765704	-0.097059906	0.019421099	-0.3305019	0.010889027	0.13542439	-0.097706676	0.21856083	0.081132196	-0.05641625	-0.12250593	-0.08087276	-0.011123622	-0.17209227	-0.1228291	0.23477742	0.029332062	-0.22003236	-0.11250814	0.22474082	0.07886079	0.09429959	0.5348062	0.106535494	-0.40147784	0.21576041	-0.3159249	0.5681777	0.26412684	-0.010376223	0.09784171	-0.2099355
0.35639665	0.06485024	-0.13211238	-0.3838954	0.08379049	-0.123724364	0.32690042	0.23101792	0.0335756	-0.15323527	0.069566056	-0.1439441	0.26477447	0.29908422	-0.18837385	0.16578248	0.31790718	-0.43928656	-0.17509948	0.004341359	0.04024398	-0.036978	0.059580438	0.38291088	-0.07249465	-0.17788328	0.18066259	-0.3667501	-0.21534987	-0.22143662	0.31271654	0.46527213	0.15959133	0.16795048	0.25277254	0.044021823	-0.2923339	-0.48772803	-0.022194387	0.18230009	0.1050498	0.37410364	-0.24123546	-0.19106618	0.22329941	-0.039163597	0.03014256	0.09586614
-0.20442905	-0.07750869	-0.07249765	-0.41527578	-0.33349273	-0.112114936	-0.43067163	0.096515946	0.1584485	-0.17879367	-0.015824419	-0.03639942	-0.028292254	0.12984501	-0.18901238	-0.05010983	0.13771874	-0.17470945	-0.035093524	0.09107842	0.07558374	0.16357498	-0.06477302	-0.059338413	-0.33121574	0.06414142	0.048127834	0.038772617	0.029029952	0.28144187	-0.21544765	0.30073503	0.06723788	-0.20870769	0.16133176	0.06464146	-0.19184092	-0.45097864	-0.35236874	0.03572268	-0.007092481	0.04284661	-0.33437553	-0.30804473	0.35936865	0.22611976	0.06862861	-0.09098427
0.13636935	0.18774976	0.21867616	0.12050783	-0.31700984	0.19387437	-0.24750574	0.002325997	-0.07273336	0.18165387	0.3111808	-0.1534331	0.051681	-0.137766	-0.060174767	0.2901913	0.2851959	-0.2392446	0.1189974	-0.15352523	0.04803099	0.078778975	-0.23033753	-0.090234034	0.4373871	-0.30400336	0.16966729	0.059817214	0.051311355	-0.08126528	-0.20109226	-0.0066093057	-0.20348197	-0.14453818	0.02311091	0.15694745	-0.26684573	-0.47984368	0.031798787	-0.1492584	0.12546664	0.048636097	-0.31638142	0.08016525	-0.17769735	0.0027905474	0.10346098	-0.11731171
0.20766935	0.1447405	-0.19703513	0.09765104	-0.1459313	0.19973385	0.03514821	-0.09689503	-0.14349988	-0.09831358	-0.15637292	0.13802664	-0.2335022	0.12912488	0.056682087	-0.28712252	-0.38845366	-0.1479745	-0.342534	-0.12685898	0.078556634	-0.24363834	-0.10335688	0.10766135	-0.37201214	-0.31965193	0.17976095	-0.050116435	-0.32029697	-0.11285856	0.08907091	0.34208122	-0.1857488	0.08476791	0.28603232	0.18320063	-0.19685924	-0.39716396	0.16956295	0.19722475	-0.21438584	-0.34533715	-0.3576138	-0.0867689	0.064767964	0.3640164	-0.22943254	0.087909296
-0.08341806	0.33598197	0.012479437	-0.39088264	0.2155011	-0.06408555	-0.14552185	0.20088929	0.010125171	0.04502893	-0.242495	-0.12330422	0.28652588	-0.023547575	-0.38404983	-0.019446287	-0.020707436	-0.33922344	-0.58008933	-0.0607375	-0.066436075	-0.06919058	0.10008078	0.38120565	-0.33971736	-0.40049097	0.19909938	-0.28202802	-0.1014809	0.27884096	-0.1729313	0.15841053	0.486591	-0.028800271	-0.16339658	0.32301903	-0.07999031	-0.18517524	0.124273345	-0.114741445	-0.013999899	-0.18262872	0.058006134	0.5170142	-0.10258286	-0.095423274	0.2121947	-0.07503109
0.26534736	-0.09108261	-0.08325885	-0.49490836	-0.33507648	0.006822251	-0.0043512667	0.3446367	-0.09161191	0.02195098	-0.25221163	0.07771571	-0.22756372	0.3758663	0.0012236387	0.09801384	0.043119382	0.1604541	-0.4019024	0.053278513	-0.08045028	-0.08486752	-0.34275624	0.14050497	-0.015837977	-0.32523972	-0.3831248	0.39143783	-0.0876898	-0.35177162	0.42868647	0.17258911	-0.2695451	-0.17363974	0.42608738	0.3343701	-0.29383877	0.19354357	-0.27306223	-0.0091312695	0.12763907	-0.080639206	0.15746848	0.3879711	-0.046131533	-0.19332664	0.26964018	-0.19303702
-0.21996465	0.049154736	-0.17156848	0.19715457	-0.062060002	-0.21279022	0.17247662	0.09072245	0.14314795	0.026405243	0.033209708	0.063863486	0.20475926	-0.3135774	-0.35292637	-0.09263192	0.08690824	0.21559228	0.018484892	0.083823375	-0.15900657	-0.21778338	-0.16861014	0.014972168	-0.30212778	-0.05910946	0.066862956	0.04900281	0.40061986	-0.11380829	-0.09728051	-0.039742243	0.18726906	0.28452536	0.18767667	0.4517123	0.19276455	-0.7162882	0.2435984	-0.047994778	0.17454797	-0.027149953	0.15321055	0.15046777	0.049731083	0.12592806	-0.102076195	-0.005218356
-0.16600324	0.33012763	-0.048998676	0.15573488	-0.3076968	-0.24598125	-0.15478227	0.071288995	-0.330494	-0.20943965	-0.018091138	-0.049869195	0.38469067	0.17868043	0.3331472	0.22746883	0.14551559	-0.1428111	-0.051090635	0.13903558	-0.12837201	-0.10456133	-0.48980883	0.16947801	-0.075809956	-0.16262539	0.08023043	-0.3769352	0.14824496	0.079761505	-0.472645	0.14859907	0.2877702	-0.15781501	0.3790066	0.032111377	-0.22746675	-0.28547063	-0.32148525	-0.18140632	0.082772285	0.15829155	-0.27000746	0.28669617	0.16862644	-0.13300872	0.06545573	-0.3222239
0.19922334	0.30698824	-0.19701731	-0.40062064	0.02491831	-0.2915388	-0.014005481	0.2592598	-0.1813229	-0.004168499	-0.55845743	0.08896503	-0.013778642	0.16685897	-0.13288626	-0.031480946	-0.0030355689	-0.21772167	-0.32024404	-0.27949148	-0.23389575	-0.001286618	-0.3127338	0.2163238	0.05179582	-0.24860053	-0.48370934	0.08735548	-0.12853761	-0.4750531	0.2425437	0.37477	-0.40546033	-0.3507284	0.33843055	0.118780054	0.059534613	0.019215599	-0.24477649	-0.2525302	0.29077107	-0.13142236	-0.29518038	0.5802328	-0.23212604	-0.3067898	-0.012784622	0.13360815
0.13576284	0.22619377	-0.23764302	-0.35983378	0.12774603	-0.10649825	0.078927755	0.06306907	-0.34794798	0.08444508	-0.018268133	-0.31902483	-0.38020214	0.22054061	0.27934748	-0.23296627	-0.31308597	-0.3097054	-0.26603082	-0.6963695	0.2063482	0.3211315	-0.0926115	-0.2938051	-0.0751018	0.063846424	-0.2746329	-0.13670188	0.17790233	-0.1697961	0.28178775	0.47299993	-0.16028894	0.09193536	0.27355626	0.034243383	-0.30699044	-0.09101127	0.37166736	-0.092333116	-0.18720132	-0.25055212	-0.14027609	0.16624993	-0.23597762	-0.19365942	0.23815075	-0.47399524
0.11442363	0.54732054	0.22624417	-0.09598675	-0.065861024	0.11522913	-0.17300546	0.11184104	0.12824452	-0.08221938	-0.0043526287	-0.34559366	-0.019319654	-0.3023211	-0.04678081	0.24355894	0.23065606	0.30938196	-0.4829824	-0.2795132	-0.20932053	-0.038468868	-0.3117283	0.26555666	-0.052084744	-0.42112073	-0.029056663	-0.13284698	-0.30516973	0.26278034	-0.2931537	0.35742417	0.3658523	-0.14702351	0.084082566	0.042276394	-0.12885253	0.18365854	-0.17178561	-0.0052956296	-0.021808801	0.20582786	-0.05456836	0.20681536	0.34770846	-0.32273346	0.084311	-0.4532811
0.20079607	0.15400343	-0.21778193	-0.062783904	-0.21009916	0.17177962	0.29338402	-0.18798752	0.2480587	0.120264955	-0.351955	-0.2814381	0.08181367	-0.2509563	0.18833572	0.411956	0.06451769	-0.18997474	-0.1423078	-0.18558444	-0.32131773	-0.15736172	0.42865142	-0.10119872	-0.17796427	-0.39742	0.08261182	0.1372865	0.12725389	0.3502309	0.2669521	-0.04865214	-0.13351995	-0.1962944	0.25977597	0.20190842	-0.06959514	-0.3621741	-0.4851897	0.22783418	0.15364796	0.40816218	-0.24513575	0.24311052	0.14296743	0.06243881	0.14176692	-0.021238485
-0.13694447	0.059948068	0.15601796	0.24727117	0.23585112	0.049949005	-0.2620421	-0.23000401	0.1595572	0.24958584	0.06345318	0.07392332	0.24647439	-0.21283405	-0.22218198	-0.057270054	0.10915296	0.33323532	0.34360898	0.045474138	-0.16068433	-0.1515345	-0.030877203	0.02585408	0.057069022	0.104848765	0.026990032	-0.08585509	0.1687156	-0.13314871	-0.18507186	0.16267219	0.04438883	0.18188927	0.0614868	0.026866911	0.10651823	-0.17793536	-0.26002094	-0.025777977	0.30619898	0.27282444	-0.1671003	0.10752718	-0.1180677	0.14428858	-0.034173347	-0.04200593
-0.05583306	0.22868562	0.119596876	-0.086505264	-0.08998026	0.07130703	0.13899796	-0.16035917	-0.19565782	-0.4769802	-0.09076416	-0.28553668	0.09466995	0.017055944	-0.14612067	0.21071449	0.54011756	-0.1609501	-0.18859763	-0.018939717	-0.33596408	-0.3016243	0.10893818	0.01162446	0.029709375	-0.13045688	-0.17899983	-0.21088271	0.08808967	-0.08479098	-0.33286595	-0.31843135	0.0068203458	0.3962979	0.02924743	-0.31165707	-0.26110548	-0.28283018	-0.18547186	0.16913451	-0.15841736	-0.11813757	-0.3593056	-0.07435709	0.16252811	0.2142972	0.16142955	0.009330168
-0.25302035	0.13102579	-0.013562778	-0.1531415	-0.119520195	0.55149025	0.17026427	0.2125475	-0.19197035	-0.13262157	-0.2148926	0.21275099	0.1552267	-0.17438675	0.007826015	0.18055214	0.2842158	0.14615428	-0.4370357	-0.2624641	-0.09028359	0.12410473	-0.26004145	0.1716092	0.1271014	-0.13634636	-0.15145296	-0.36501235	-0.16342632	0.08004728	0.066417105	0.49318755	0.27882272	0.04576359	0.07429167	0.11970546	0.21632068	0.20256656	-0.3289395	-0.26267952	0.057975654	-0.15267392	0.38672233	0.053860348	0.12781262	0.11701616	0.49299097	-0.33336505
-0.41848227	0.3287659	-0.06484614	-0.0077681616	0.24599074	-0.035087004	-0.034627497	0.063683435	-0.19671163	0.038164075	-0.26370502	-0.043772627	0.23695837	-0.24410261	0.30020258	-0.013852778	0.03689404	-0.06779492	-0.25977927	0.32530254	-0.103079826	-0.015728097	-0.36368147	0.12566222	0.11867404	0.029804094	0.3494113	-0.2899938	0.42357916	0.29779625	0.3119744	0.04064163	-0.47806957	0.030010218	0.2686067	-0.07231972	0.08408694	-0.340948	-0.0835155	-0.038967352	-0.35417217	0.38406312	-0.20875898	-0.2202943	-0.24552621	0.27672172	-0.3666823	-0.4285724
0.2230706	-0.10162627	0.011973542	0.21283552	0.17661227	0.4345613	0.029547378	0.12115434	-0.04107013	-0.1207074	0.056427173	-0.5945301	0.06569194	-0.14526974	-0.27184647	-0.06234791	-0.052395444	-0.19135725	-0.07451644	0.21148165	-0.21618779	-0.15792413	-0.33047852	0.043506484	0.09134835	-0.29553965	0.16279407	-0.030885378	0.2478624	0.30414686	0.32328114	-0.18844135	-0.2933897	0.10335873	0.3377015	-0.11169603	-0.1394557	-0.08601168	0.03612604	-0.016785119	0.05566415	-0.033499286	0.024480602	-0.22095294	0.106093824	0.16840409	-0.36422879	-0.076729424
-0.27005848	0.16458833	-0.18831953	0.19598924	-0.033583082	-0.01604445	-0.30437425	0.14405881	0.34424394	0.2680107	0.31815875	-0.27084133	-0.14352164	-0.19867918	0.23049489	0.11127891	-0.33162135	-0.005043356	-0.044848677	0.08499798	-0.14957768	-0.090590484	-0.020510497	-0.16209278	-0.045265935	-0.0032713378	-0.043315463	-0.1564505	0.19011389	0.28734416	-0.11707736	0.2741963	0.21417145	0.2995058	-0.20282611	-0.21708038	-0.26222616	-0.45670795	-0.529052	0.22007841	-0.02589641	0.08572128	-0.32496983	-0.25093585	0.33910406	-0.04011523	0.22010535	0.11416429
0.20092216	0.15982063	-0.4481982	-0.19909714	-0.24299332	-0.17486693	-0.056829974	-0.21455163	0.17608212	0.14147769	0.11165611	0.28195694	0.22294891	0.0040967367	0.37694877	-0.2101159	0.23977605	-0.30375588	-0.34291413	-0.3077314	-0.32261786	-0.7347412	-0.12684016	0.11134564	0.28263018	-0.5332054	-0.5146162	-0.13300335	0.7227939	0.080939025	0.09617006	0.4720505	-0.54314315	0.094772436	0.029380469	-0.03221923	-0.052596465	-0.066793054	0.28792405	-0.100953214	-0.6115721	-0.18593426	0.22427668	-0.08844844	0.3558733	-0.291614	0.046373736	-0.26470003
0.19395272	-0.2400109	-0.02593282	-0.0908269	0.33543187	0.10185253	0.0607447	0.118695885	0.17426808	-0.34829757	-0.18517634	-0.46094856	0.101111	0.075226255	-0.13650745	-0.0015630745	0.009505097	-0.43063718	0.021962743	-0.27414516	-0.032146767	0.006401184	-0.03195355	0.046893746	-0.43964705	-0.0938957	0.39453855	-0.06709526	-0.093034506	0.22423027	0.22151268	0.020546569	0.062571906	-0.021270761	-0.19089784	0.17670128	-0.1714137	-0.5371225	-0.09876341	-0.39204976	-0.4562665	0.1496016	-0.18090159	-0.36602312	0.105833754	0.40322554	-0.1640172	0.27095053
0.20559897	-0.20234795	-0.07111846	-0.26704466	-0.51924753	0.2815213	-0.13983804	0.03991307	0.39850983	-0.056524687	-0.27672246	-0.37164626	0.030963553	-0.0611266	0.26331103	-0.37771404	0.06410129	-0.21331252	-0.16940367	-0.5226063	0.10605151	-0.15355968	0.13881083	0.33010697	-0.09828385	-0.23023546	0.03676917	0.12373136	0.15875363	-0.37387785	-0.1716959	0.18364565	0.10471979	0.11491525	-0.18549593	-0.29973516	0.29087925	0.33003333	-0.11899065	0.12419632	-0.29840395	0.11010884	-0.38027623	-0.10343339	0.043753732	-0.4671343	-0.06846749	-0.19829705
0.31445786	0.19151947	0.2737983	0.1651283	-0.13410851	0.28300238	0.092631176	0.015983677	0.45355198	-0.19090332	-0.42024416	-0.069947325	-0.2954791	-0.24289086	0.17959774	-0.014993011	0.15408452	-0.21284683	0.19164483	-0.355159	0.21067539	-0.41933686	-0.097561814	0.13411662	0.12727983	-0.48948658	0.27373517	-0.1951376	0.087299645	0.2280862	-0.008243186	0.41060662	-0.08478277	0.08197597	0.27624083	0.20428643	-0.12262115	0.3263586	-0.22374369	0.28989252	-0.20265019	-0.036274903	0.18614754	0.119751014	-0.13065863	0.048093423	0.070143804	-0.46534288
-0.02466614	0.112751454	0.21581763	0.017388318	0.2225629	-0.124277316	0.27845785	0.2486063	0.2934484	-0.3357968	-0.19388936	-0.15135549	0.22773623	-0.30587837	0.11983368	-0.3339722	0.3771765	0.15211803	-0.09460295	-0.1748734	-0.054886736	-0.00012547523	-0.31251225	0.14040191	-0.25717795	0.033272747	-0.08522542	-0.117826164	0.3055119	0.17434168	0.05388874	0.036729604	-0.050106388	-0.0805975	-0.12917769	0.27307245	-0.22121032	-0.28241238	0.16412659	-0.20397416	0.03152688	0.08593878	-0.034290977	-0.12774035	-0.03165877	-0.23207216	-0.115364686	-0.23425764
0.10563594	0.19889407	0.08291868	-0.18447486	-0.30713543	-0.15855329	0.20796104	-0.16862509	0.29891	0.00012266205	-0.19472489	-0.19974303	0.27320212	-0.16409323	0.26909068	-0.4389169	-0.39230072	-0.19267076	-0.26764607	-0.24886602	0.16026324	-0.26176172	-0.24628675	0.52311313	-0.28517053	0.112081066	0.40396643	0.3203775	-0.054002292	-0.14960295	0.11021904	0.23781288	-0.060496144	0.349535	0.28712466	0.023454338	0.28056705	0.36950845	0.21560313	0.36252677	-0.17306992	0.097611055	-0.061482754	0.048651893	0.10502502	-0.27629647	0.24913341	-0.32097828
-0.29727066	0.3672483	0.1388156	-0.23515813	-0.16647209	-0.050785925	-0.17477232	-0.040617876	0.11753714	-0.21706752	-0.19602579	-0.2339878	-0.11397933	-0.25654083	-0.17712452	-0.3510162	0.07357665	-0.17701988	-0.4649915	-0.40837097	-0.1889349	-0.33124346	-0.20656866	-0.13176513	-0.41206196	-0.26104403	0.2259229	-0.16184913	-0.3587799	0.17781624	-0.11344917	0.08752191	-0.16436832	-0.102076	0.251157	-0.21673223	0.1635859	0.1545742	-0.50986683	0.1262003	-0.10277858	-0.1130749	0.062148232	0.20041245	-0.0071847383	-0.1468917	-0.06777943	-0.5583243
-0.12847134	0.16062748	0.13588412	0.12404265	0.11545013	-0.12970436	0.2966398	-0.033616785	-0.4778521	-0.1946385	0.1018517	-0.29706344	-0.09325517	0.22921574	-0.05184006	0.4376104	0.3541808	-0.08107249	-0.17968544	-0.23103906	-0.37967557	-0.3688633	0.07252027	-0.13649336	-0.12289611	0.14224292	-0.26972252	-0.35981613	-0.13754217	-0.07166719	-0.14431171	0.29275647	-0.22620642	0.20908733	-0.0067185657	-0.1386969	-0.3510894	-0.52214336	-0.6545398	0.5876753	-0.0108048795	-0.03176065	-0.14319612	0.15670764	0.04425848	-0.03956937	-0.020831585	-0.004409014
-0.15821376	0.13807431	-0.19963294	0.2616863	-0.1686196	-0.10868718	-0.002991655	0.16138172	0.2146687	0.10932	0.30353066	-0.31836227	0.01915353	-0.072709136	0.20069616	-0.19723454	-0.3243682	0.09939794	0.07585406	0.17454939	0.14413278	0.14953074	0.023855448	-0.07257663	-0.03470869	-0.36848125	-0.15251808	-0.08915092	-0.09169349	0.17095847	-0.13371742	0.39075288	-0.20169348	0.40754986	-0.38801897	0.2979732	-0.15316932	-0.5719922	-0.30072004	-0.13316455	-0.08335878	-0.09146467	-0.25029624	0.13767679	-0.14816062	0.081376016	0.08691121	0.01287643
-0.019367792	-0.024479195	-0.5808136	0.18574052	0.02276525	-0.441577	-0.0051430543	-0.11032801	0.056348346	0.24227111	0.22875927	0.09631211	0.39893395	0.18267068	0.47319216	-0.40236622	-0.08222782	-0.3516619	-0.38860026	-0.46811894	-0.46457133	-0.19601393	0.079844914	0.14204818	0.043152593	-0.35750723	-0.20407611	0.12732893	0.21241096	0.24843258	-0.23844445	0.21649775	-0.43526742	-0.20741545	-0.09501072	0.39882255	0.28642702	0.2212838	-0.23375133	-0.2276489	-0.295189	-0.20269078	-0.19156154	0.21471262	0.25398648	0.15925889	-0.04882414	-0.2737181
0.10545325	0.5358189	0.19623113	0.1250539	-0.13686582	-0.01638393	-0.008565373	0.11599154	0.08171592	0.20028153	0.07904213	-0.15460207	0.1764606	-0.04175413	-0.12625174	-0.090103604	-0.2154736	-0.41013327	0.07640148	-0.34449995	-0.15031205	-0.2930775	-0.1742792	0.14663102	-0.15752348	-0.41594929	0.023798775	-0.40008482	-0.11721863	0.00543498	0.1638897	0.18600419	0.112685144	-0.01157754	-0.298453	0.07673202	-0.08037205	0.25793183	-0.1195162	0.0024390654	0.11297191	0.14110859	0.040141772	0.01921672	0.38388768	0.06180329	0.3675128	0.0782017
-0.30173218	0.10784371	0.3544558	0.3363208	0.17045519	0.4339195	0.18714891	0.21913163	-0.3322313	-0.05878427	0.18412939	-0.18033856	0.31659722	-0.35024256	0.020829123	-0.29991758	0.3373877	-0.2677239	-0.13271861	0.12182691	-0.2797005	-0.13416518	0.20465347	-0.3551453	-0.15927206	-0.04645413	-0.045492455	-0.07463883	0.06024626	0.12655106	-0.041089784	0.113848805	-0.24722502	-0.2294477	-0.070683986	-0.22523701	-0.12679674	0.11769464	0.13260767	-0.069569826	-0.1783248	0.12150804	-0.007104467	0.1802192	-0.20929371	0.20798616	-0.27763814	-0.2147243
-0.17282824	0.18408094	0.20686693	0.20187977	0.07940705	0.17657088	-0.31160423	-0.2629411	-0.14771609	0.11916981	0.14938161	-0.0064745797	0.11991086	-0.23505387	-0.16356522	0.11008355	0.14615905	-0.18359163	0.40823805	-0.15948445	-0.0717424	0.20250009	-0.085270755	-0.2996622	0.3342286	-0.33892515	0.049956523	0.2036458	0.09438439	0.023434743	-0.34968376	0.092945084	-0.07637198	-0.0028003957	0.08966239	0.17337455	0.047208175	-0.35008222	0.17448127	0.27484632	-0.08089333	-0.31083903	-0.40063927	0.26425615	-0.22048047	0.12133865	0.4228855	0.0010362902
-0.21777716	0.24070433	-0.2682387	-0.2921935	-0.116215445	-0.09858957	-0.10890796	-0.21212961	-0.31094208	-0.078637324	-0.20615222	0.009029819	0.32781368	0.24502659	0.05807165	0.48850438	0.20071831	-0.072072506	0.34729546	-0.25528437	-0.18966807	-0.29998946	-0.21772946	0.10909829	-0.2228007	-0.052463807	-0.14014117	-0.43394846	-0.37164944	-0.19108503	-0.18900801	-0.26039502	0.3128359	-0.0003815176	-0.06152439	-0.10826948	-0.42599413	-0.6238251	0.063609056	0.06280712	-0.2102355	-0.14493851	0.052413445	-0.21174315	0.18650325	0.43819228	0.13337664	-0.08588625
-0.27727973	-0.20330442	0.29533702	-0.03825266	-0.2783007	-0.026969768	-0.35447985	0.055566102	0.05122293	-0.34954998	-0.20916131	-0.41279733	0.47202155	-0.13781285	0.24990289	-0.2672542	-0.23715702	0.13440205	-0.29328266	0.33217555	-0.35990745	-0.34783915	-0.18313283	0.356571	0.2825222	-0.040629428	0.19129808	-0.35593554	0.2962136	-0.16531761	-0.020292325	-0.065789565	-0.46315423	0.0015808607	0.2624458	-0.0636764	-0.013073818	0.04865039	-0.25854397	0.1648411	-0.12973751	0.12305965	-0.09641994	-0.0381784	-0.26661116	0.31730917	-0.2171899	-0.21004494
-0.011002318	-0.061173853	0.21437518	-0.24382743	-0.24653558	-0.28092602	-0.12035353	0.2120236	0.2921771	0.042718466	0.043348208	0.052629817	-0.03456588	-0.21946393	-0.032957282	-0.2019696	0.14011341	0.18838522	-0.34193105	-0.038248513	-0.0774609	0.1270511	-0.27269456	-0.15488903	-0.18327439	0.05390256	0.11296077	0.0755296	0.2401582	0.03030583	-0.076855056	-0.012141008	0.026016671	-0.27695143	0.2784607	0.039095037	0.007354831	-0.32622668	-0.1614877	0.16016719	-0.35054109	0.026865508	-0.37822106	-0.08748529	0.15340531	-0.0066879895	0.27106878	-0.2708548
0.0056796335	0.2862775	-0.21012075	0.14378479	-0.27804008	0.20392199	-0.23433657	0.31609923	0.07577976	0.049385086	-0.06379486	-0.108575255	0.26334164	-0.16818385	-0.017222857	0.16751719	0.09934497	-0.066014886	-0.04170639	0.4369645	0.23416719	-0.2684105	-0.059807587	-0.17151016	0.05296443	-0.03526144	-0.26955587	-0.037389126	-0.24710746	0.35805252	0.17397603	-0.12715518	-0.19352081	-0.2555211	-0.1750315	0.04965404	-0.28069615	0.1704561	0.012754227	0.31310984	-0.15554214	0.27913493	0.19030717	-0.19275288	-0.06816693	-0.032046046	-0.09477793	-0.036878105
0.33471012	-0.11854314	-0.07794812	0.13919635	0.19643152	-0.2876421	0.065502174	0.21194972	-0.048137162	-0.2497538	0.24617152	-0.41466844	-0.04309186	0.12174894	0.27505475	-0.348152	-0.12889889	-0.103527546	0.034752022	0.031363487	-0.035641745	0.2921753	0.29513627	0.29751888	-0.024589969	-0.24502829	0.14235207	-0.40987793	0.29618692	0.24287288	-0.0587129	0.22270015	-0.011742864	-0.07941427	0.22871783	-0.15660344	0.0011464516	-0.34669685	0.20339236	-0.04439458	-0.56340384	0.21308678	0.1990546	0.11147137	0.28661746	0.16351241	-0.19966906	-0.13100983
-0.17991655	0.28826177	-0.062354535	-0.3587667	0.13614348	-0.36442387	0.41917023	0.4438369	-0.4038104	0.42564753	-0.15130734	0.066424415	-0.39459378	0.11806672	0.12979312	-0.34661013	-0.26979858	-0.08040594	-0.44087252	-0.08873013	0.025910616	-0.0061164536	-0.32442984	0.10790502	-0.05218902	-0.2459372	-0.5222564	0.2631534	0.14669475	-0.1119414	0.27612272	0.20983037	-0.27405438	-0.28281242	0.2463356	0.43066433	0.12616834	-0.19882464	-0.21975678	0.05871959	0.34587538	0.07596873	-0.14501223	0.3350723	-0.14288513	0.0019777967	-0.0938883	-0.286964
-0.3738715	0.21199512	-0.540811	-0.6433705	0.032310095	-0.12309761	0.046110034	-0.23742504	-0.28448498	-0.1185849	-0.24527963	-0.060102604	-0.29096627	0.424564	0.34741214	-0.034415897	0.20432587	-0.33076224	-0.575748	-0.43287602	-0.18465234	0.10967959	0.15707389	0.16142121	-0.21004675	-0.0342869	-0.37386763	-0.027297633	-0.061916985	-0.3957363	0.0054652686	0.18074264	0.29111436	0.07580772	0.40957767	0.38249192	-0.043400526	0.0032403802	-0.16450824	0.19900234	-0.27217844	0.19174153	-0.22875726	-0.17054091	-0.3238915	-0.4077967	-0.17760527	-0.29081967
0.17865287	0.3583456	0.20344116	0.18212013	-0.12532741	0.05003351	0.2923247	-0.039506864	0.21207057	0.018077958	0.005771118	-0.31963778	0.407353	-0.22571406	0.5144458	0.45430318	0.074907236	0.00909037	0.32473212	-0.20808862	-0.30253488	-0.2432836	-0.038346298	-0.1690314	-0.031162238	-0.5708991	-0.060968168	-0.043592952	-0.28087163	0.029147409	-0.2095886	0.3313596	-0.021409223	-0.35196045	0.30798343	0.2566936	0.45279968	-0.11907175	-0.31647086	0.37926298	-0.038885165	0.22747128	-0.062101237	0.2704428	0.083512105	0.40649933	-0.2178683	-0.12550211
-0.23235483	0.30090034	0.50449246	0.31344464	-0.2566038	0.13570975	-0.19958894	0.24529274	-0.031798523	-0.14066355	-0.2937218	-0.37367538	0.6138069	-0.43020806	0.26381662	-0.009789047	0.0611189	-0.11151353	-0.34932363	0.0051440788	-0.5404537	-0.28016835	0.10154629	-0.06735658	0.14446962	-0.03399417	0.11513723	-0.10757864	-0.06253737	0.18569282	0.35440856	0.25827965	-0.10374251	0.28180972	0.38881606	0.14404008	-0.11435431	-0.54255044	-0.008266949	-0.15968387	-0.09224214	0.01893047	0.23689184	-0.30489382	0.06972703	0.19738916	-0.10377424	0.040497582
-0.23732875	0.0060563344	-0.2146954	0.12410088	0.28840533	-0.21854566	0.3504542	-0.20428583	-0.21840455	-0.43423763	-0.22101136	-0.22809242	0.25048912	0.11484947	0.36878198	0.08253979	0.15875743	-0.08129587	-0.09026873	0.17045788	0.15960853	0.36577904	-0.1442572	0.19640647	-0.35177296	0.05228327	0.050435677	0.023624806	0.05467132	-0.1661263	0.28890157	0.2196695	-0.03779721	0.13602364	0.24998064	0.19762586	-0.21532607	-0.19062799	0.03457577	-0.18253678	-0.4524503	-0.29395363	-0.16818893	-0.0599886	-0.32302332	0.1709011	0.101054125	0.02947948
-0.061983034	-0.16761005	-0.3408847	-0.23468108	-0.18989965	0.31963313	0.1848747	-0.17659602	0.18745928	0.22112201	-0.11361436	-0.46198794	-0.12757933	-0.12424835	0.48883465	0.35739827	-0.20693073	-0.4778659	-0.07077254	0.1507981	-0.36691427	-0.3863629	0.2391146	-0.075532064	0.21365461	-0.014106635	-0.24946311	-0.18932855	0.11016392	-0.11170677	0.11772236	0.22489473	0.17336355	0.021150447	0.32598734	0.056869354	-0.08380893	-0.5073714	-0.029273003	-0.28872076	-0.010712058	0.162954	-0.23490335	0.3791607	0.26627073	0.39065412	0.0041931	-0.38720545
-0.088140495	0.14305092	0.13392417	-0.009157771	-0.1346296	-0.032544207	0.25667226	0.55424136	-0.410295	0.3145118	0.14777055	-0.0702133	-0.23527561	-0.19285259	-0.23438635	0.23634215	0.16992341	-0.06910846	-0.35988444	-0.36561376	0.14667214	-0.24509202	-0.15786049	0.22104387	0.14462754	-0.16548859	0.008024571	-0.22056617	-0.4153579	-0.108780615	-0.25784358	0.6206528	-0.09163649	0.19071303	-0.11691366	0.1996827	0.14126895	0.34335956	-0.09566226	-0.38653296	0.20351191	0.099870816	0.1435694	-0.09386461	0.08315777	0.23437428	0.21715923	-0.62901795
-0.069889694	0.015210632	0.35098094	-0.013261316	0.0070318445	0.06379417	-0.06874065	-0.06960031	-0.2727534	-0.27801317	-0.020569118	-0.23431793	0.27108896	-0.1977893	-0.3369568	-0.1118458	-0.1369822	-0.033766307	-0.29936093	-0.13490303	-0.14594439	0.03971968	0.027647447	-0.15014994	0.06769373	-0.06635625	0.30092284	-0.039584134	-0.33133188	0.15390295	-0.24291663	-0.26794222	-0.11251955	-0.27770427	0.14041483	0.20495084	-0.19323745	-0.5790385	0.27403763	0.22036192	0.1938985	0.06524978	-0.18788953	0.041441053	0.012178743	0.024021585	0.16387483	-0.095304966
-0.30375198	0.28236613	0.1016258	-0.31832433	0.20221634	0.2569167	-0.09937759	0.012064571	0.06538359	0.28307897	-0.43010125	-0.36045793	-0.041031588	-0.22435805	0.053429637	-0.08162931	-0.08755437	-0.45208412	-0.3169726	-0.016474666	0.102157205	0.34135816	-0.4994792	0.15256684	-0.18773217	-0.30275443	-0.14857744	-0.32012066	-0.112017326	0.3241778	0.06008574	0.050529905	0.104712345	0.10383853	-0.24317107	0.396349	0.014197928	-0.2340765	-0.14908168	-0.14872663	-0.31574488	-0.18679236	0.05251661	0.3497856	0.0077723945	-0.15349407	0.17698088	0.09486213
0.28796506	-0.08916205	-0.18661138	-0.17540091	-0.25162664	0.5009645	-0.22368544	0.08817886	-0.301085	0.30310303	-0.3852804	0.22203119	0.22248305	-0.46326533	0.4664358	-0.54387397	-0.2302474	-0.7120415	0.25800627	-0.46620384	0.10265198	-0.23833564	0.2203248	0.41705507	-0.021689782	0.051810335	-0.35598388	-0.6329363	0.06529338	0.3461235	0.21140003	-0.03792045	-0.46460974	-0.02270266	0.48712543	0.31774357	-0.23275739	-0.17495477	-0.0020876462	0.6116687	-0.48953903	0.062218834	-0.18261255	0.29552424	0.09784992	0.14209199	0.5066529	0.009194159
0.052469995	-0.2710006	0.1423837	-0.3474582	-0.046727937	0.29194582	-0.035721455	-0.024326306	0.050072707	0.40439752	0.1328992	0.28847882	0.20458496	0.08367087	0.13734451	0.0936477	0.053712856	0.012206119	0.01542352	0.16320142	-0.19557792	-0.07456182	0.16109025	0.4689329	0.12372639	-0.015305784	0.15960692	0.16836672	0.04624392	0.13775152	-0.33111528	0.23322262	-0.085661784	0.12339249	0.031081665	-0.2767046	-0.06163238	0.16946492	-0.44652575	0.09584769	-0.11846402	0.13006756	-0.08800321	-0.19046807	-0.18452002	0.14436106	-0.37125388	-0.57576716
0.18927072	-0.08122941	0.2527691	-0.17415684	0.4826205	-0.15054464	0.15043312	0.2510574	0.116698265	0.16611475	-0.055862073	-0.03460268	0.2780338	0.09496147	0.1567813	-0.40205047	-0.09655606	-0.1542638	-0.21393277	-0.102468856	0.20257398	0.17421252	-0.07339679	0.26654944	-0.20088562	0.03524977	0.3405759	-0.26838037	-0.15425748	0.1089738	0.15700795	0.17739679	-0.109825686	0.29035965	0.304036	0.21263932	-0.15665123	-0.212169	-0.18248779	-0.017347261	-0.031659786	0.29059416	-0.23946652	0.10084648	0.13401274	0.40099126	-0.20064309	0.010473722
0.23352529	0.27439302	-0.16009611	-0.045375336	-0.37751323	-0.042408064	-0.24546212	-0.2440671	-0.02307082	-0.03224468	0.0884562	0.049981367	0.06515354	0.25013784	-0.09602382	0.036778316	0.04217417	-0.020193312	-0.33332297	-0.06361482	0.23918556	-0.14330165	0.016468978	-0.0061280974	-0.27547643	-0.42284852	0.11751961	-0.31066373	-0.286918	0.007671136	0.018269388	0.12112944	0.18008183	-0.11869131	0.3083638	0.10797114	0.27587727	-0.26205692	0.23403758	-0.0063807303	0.12571797	-0.012132394	-0.08662352	0.30758575	0.12843414	0.6232938	0.018448383	-0.40268776
-0.055582948	0.50046843	-0.3910826	-0.14270136	-0.12460905	-0.21322653	0.13412254	-0.4503214	-0.054817148	0.14675741	-0.03081724	0.3219429	0.13937207	-0.065423876	0.010016622	-0.38897654	-0.00094279123	-0.4904759	-0.43699822	-0.1966435	-0.19628532	-0.22397976	0.14437477	-0.23542747	0.2983121	-0.29114142	0.09972615	0.11283103	0.55732304	0.043594345	-0.46631014	0.3558894	-0.5897822	-0.21898527	0.035409834	0.26290944	0.2527605	-0.25253063	0.35360166	-0.2310086	-0.25421458	0.08951945	0.3066075	0.43362215	0.5109784	-0.1416112	0.4410376	-0.226527
-0.12045746	-0.29268792	-0.113100626	-0.119901285	0.1421836	-0.2514093	0.3303303	0.273809	0.36628434	-0.21394192	0.16057701	-0.36469245	0.07369233	0.07916392	0.18937357	-0.168406	0.054330103	0.08020449	-0.22929585	-0.33205104	0.08789913	0.3352882	0.13292854	0.47599065	-0.36916104	0.15342444	0.3398625	-0.22356719	-0.18212046	0.11372789	0.27681342	0.078766584	-0.1409429	0.02559455	-0.17846327	0.22116353	-0.31563234	-0.13977213	-0.20501715	0.06767469	-0.094247736	0.2072352	-0.035502132	-0.09873363	-0.087860554	0.19060561	-0.21533312	-0.03274234
-0.120522715	0.45437777	-0.5480563	-0.19413516	0.039933164	-0.26416376	0.15259074	0.19092114	0.16072875	-0.08308054	-0.47833025	0.2723704	-0.09915097	0.349084	0.5457365	0.068602175	0.28215215	-0.20082791	-0.511725	-0.54490507	-0.12615964	0.37068826	-0.29098457	-0.08730049	-0.7724002	0.044165507	0.21372892	0.113055766	-0.08814109	-0.11308397	0.16360742	0.16659641	-0.0035034968	0.14866748	0.0385577	0.6120986	0.22100602	0.11389068	-0.12693208	-0.09200384	-0.049955755	0.19851317	-0.22483781	0.26101092	-0.3267455	-0.25250262	0.068817854	0.061427746
-0.2269664	-0.06028793	0.27585942	0.013931512	0.04720679	0.13572864	-0.2388959	0.5627164	0.12881197	-0.012870507	-0.3585498	-0.058569588	-0.1781842	-0.43236226	-0.23563276	-0.121519476	0.019229619	0.038887024	-0.088162564	0.07088125	-0.36323327	-0.23932862	-0.56433856	0.2529127	-0.11309569	-0.18717374	-0.07541669	-0.11031276	-0.39994863	0.6787781	-0.24200177	0.13891654	0.06651653	0.13792391	0.11139297	0.08505182	0.20473495	0.26217747	-0.10932068	0.25644052	-0.290015	0.036047835	0.2540989	0.37935886	-0.11683206	-0.2151296	0.09419993	-0.3229563
0.081813455	0.061963685	-0.049860746	0.24911551	-0.10903592	-0.08323196	0.006476779	-0.21767436	0.23755886	-0.122118846	-0.030777285	0.2448609	-0.014894122	0.02084084	0.21117027	-0.4408025	0.1774799	0.33389413	-0.32802108	0.09365259	0.20455693	-0.2980095	0.07261583	0.04832327	-0.1661192	-0.080086656	0.27208763	-0.29800555	-0.2007668	-0.21169928	-0.080012865	0.0814985	-0.32269916	-0.05335925	0.2755512	0.31502125	0.28998086	0.038582753	0.14997248	0.20634696	-0.35212544	-0.045370024	-0.016825568	-0.08791705	-0.070774436	0.5954278	-0.016244821	-0.23452346
-0.42185333	0.08828287	0.12820435	-0.31557494	-0.34793037	0.31504163	0.2601183	-0.23372298	0.29119486	-0.090929836	-0.37842047	0.024291273	-0.066306174	-0.043692168	0.4393537	-0.35492897	0.20559105	-0.010519698	-0.21931675	-0.03651973	-0.19530456	0.1711501	-0.018086452	0.073598266	-0.08914906	-0.20036037	-0.28797933	0.38029215	0.11628304	-0.24292095	-0.0012408316	0.20467408	-0.39931825	-0.059875645	-0.35105917	0.42512807	0.28398675	0.06301312	0.14765792	0.15846778	-0.33463854	-0.22039221	0.008324852	-0.22856809	-0.09747113	0.13104011	0.14363837	-0.19854942
0.1533508	-0.04169878	-0.15535529	0.1800263	0.14264882	-0.2975114	0.31357574	0.11764037	-0.1672131	-0.0050879763	0.19548726	-0.16840452	-0.10491954	0.17998147	-0.039974824	-0.2118196	-0.22369257	-0.05044959	-0.021868767	-0.040947422	-0.23069885	0.3153371	0.12943138	0.49589068	0.12293056	-0.008492966	0.37100625	0.11157456	0.15866823	0.19489463	-0.11229171	0.19944361	-0.48468158	-0.22861192	0.46902132	-0.0034628236	0.13852286	-0.16686848	0.07318114	0.08065337	-0.6731999	-0.057678953	0.3909564	0.26523566	0.037080087	0.3923147	0.098880835	-0.11439033
0.16706388	0.054321818	0.02876624	-0.04094731	-0.21752457	0.2866282	-0.13138695	0.27054456	0.165457	-0.3338333	0.22475818	-0.30901998	0.129155	-0.36931345	0.27442732	-0.013217612	0.2302381	0.044273004	-0.17040008	-0.07299914	-0.14705901	-0.32817772	0.019355578	0.29441243	0.023462038	-0.0887913	0.21613337	0.13036817	0.27873755	0.27352786	0.15866978	-0.06344772	-0.28919053	0.12641656	0.38945767	0.12909026	-0.2380645	0.0012351621	-0.32888466	0.39215606	0.3793784	0.032372784	0.24897322	-0.12178685	0.18372354	0.010654706	-0.36601245	-0.1847664
0.23819108	-0.19580452	-0.35787147	0.08113563	0.20657055	-0.27684063	-0.09495902	-0.094163954	0.22784257	-0.02603205	0.033431627	-0.051869027	-0.20111547	0.04825427	0.1332286	-0.26854172	0.02821512	-0.12727119	-0.25667775	-0.19306637	-0.2530714	0.3319327	0.0061312206	0.15177876	-0.20033039	0.13915104	0.07621717	-0.05663909	-0.20759065	0.038718518	-0.02212448	0.15078114	0.18894912	-0.05914932	0.0067911483	-0.15583375	0.2403826	-0.1885832	0.0255673	-0.05990016	-0.040569577	0.28333142	0.23055118	-0.0988898	-0.3158016	0.20406406	-0.012219458	0.024849491
0.18386969	-0.22369872	-0.17082918	0.008938687	0.13593537	-0.12252058	-0.022834897	-0.25878668	0.36094758	-0.008269507	0.024618153	0.051891956	-0.20079845	0.034839313	0.39134163	-0.045332607	-0.16797458	-0.105306536	-0.21766748	-0.14191404	-0.14853168	0.36481228	-0.08098007	0.20177485	-0.19807996	0.09433287	-0.093683735	0.004466401	-0.1410394	0.11245299	-0.23755324	0.15406914	-0.085639186	0.037882756	-0.10390378	-0.10538376	0.14722764	-0.24421053	0.31784353	0.19489798	0.08219718	0.19255637	0.16265403	-0.36429283	0.06570718	0.25414452	0.111971475	0.27495664
-0.3233023	0.0004365106	-0.16446719	0.14245857	0.10477616	-0.07601286	-0.20309965	-0.05479575	-0.20456688	0.057134826	-0.17489362	-0.17006265	0.52434695	-0.062858514	0.2237707	-0.2854965	0.12971681	0.34184593	-0.0972291	0.12310344	-0.18874738	-0.102418326	0.049018633	-0.19477922	0.031227028	-0.17686456	0.22083639	0.088123076	0.20152454	0.41133496	0.17465343	-0.3219088	-0.21736862	-0.07432498	0.016221892	-0.29232192	-2.9890798e-06	0.025681179	0.14472704	0.010560046	-0.23624676	0.19188245	-0.16311698	-0.15247162	-0.40763777	0.2847742	0.11966872	-0.23236987
0.41663778	0.494769	-0.09418889	-0.6579515	0.13622989	0.11617116	-0.068180524	0.020192001	-0.25622973	-0.2918958	-0.16029409	-0.17433558	-0.14873487	0.32432246	0.09730313	-0.60127604	0.061186835	0.023297893	0.08332901	-0.21729335	0.15402566	0.13544899	0.038973227	-0.2736355	-0.5012061	0.15977833	-0.288166	-0.025859142	0.25397024	0.17422937	0.38186747	0.5249065	-0.3314617	0.31097388	0.38561755	0.06628179	-0.17061932	-0.2062668	0.09810238	-0.24452075	0.17515378	-0.32568923	-0.21503851	0.16021922	-0.4293533	-0.14244148	0.3149125	-0.5055378
-0.17571765	-0.045652077	-0.092981234	-0.33625934	0.38353482	-0.1031614	0.29733336	0.01579594	-0.04107006	0.11689689	-0.18667518	0.08804627	0.14301625	-0.13561419	-0.036367476	-0.2946902	0.18000041	0.3347256	-0.2350252	0.10651166	-0.08339564	-0.40452853	-0.36880976	-0.06945492	-0.18671702	0.19013561	-0.01383308	0.094031386	0.23669183	-0.06208715	0.2026108	-0.35678083	0.08516145	0.20485748	0.13515761	0.21763964	-0.09450592	-0.28518143	-0.08986891	-0.09777155	0.32607478	-0.039099276	-0.13870198	0.15829892	-0.17917803	0.20033602	-0.13801645	0.07193392
0.14522164	0.1964145	-0.15810925	-0.0350238	-0.3103418	-0.23747759	-0.0635828	-0.12249379	0.06512227	-0.10132377	0.06289326	0.12863024	0.084544055	-0.08954129	0.159816	0.10657707	-0.3618361	0.16307843	0.2297821	0.15123393	0.06265646	-0.34600964	0.13578686	-0.24664381	-0.108716734	0.06396726	0.110269435	0.1266919	-0.16729711	0.1639815	-0.14754926	0.31249616	-0.15671723	0.0063261488	-0.12424286	0.1837656	-0.1564544	-0.44943932	-0.45380104	0.31841087	0.014469565	0.10742559	0.183576	-0.2086327	0.19733098	-0.18618494	0.19658665	0.12955147
0.25372145	-0.08152716	0.019345235	0.043225937	-0.019110136	-0.0719151	-0.11421574	-0.23093963	0.05984884	-0.06155278	-0.13127522	0.07219214	-0.06452679	0.079241745	0.109798975	-0.09725265	-0.21254721	-0.21987875	-0.016433964	-0.023527365	-0.11166497	0.17766061	-0.11384749	0.0048076217	-0.17765059	0.120739155	0.024020974	-0.23150295	-0.48308593	-0.19713083	0.19775143	0.25802413	0.0007402228	0.24313924	0.078290336	-0.266124	0.031216433	-0.055174366	0.2776971	0.2170578	0.14537916	0.2820411	0.12663542	0.031700276	0.1278138	0.21155168	0.16668531	0.35007516
-0.32707366	0.28217027	0.1679744	-0.26619795	0.14962496	0.7150276	-0.27846166	0.03980107	0.34638473	0.29658148	-0.5845061	-0.22672813	0.091832414	-0.2079182	-0.078781426	-0.06844346	0.24719547	-0.07835027	-0.32239413	-0.029286241	0.24006368	0.037811436	-0.031027732	0.47683817	-0.29752168	-0.78319913	-0.24029334	-0.13908014	-0.04131844	0.047363337	-0.09574811	-0.31635857	-0.0826674	0.29988563	-0.1894595	0.16108358	0.121101834	-0.1014291	-0.23212247	-0.26632997	-0.22654672	0.10820071	-0.07975136	0.32855517	0.21612391	-0.1419572	0.3572781	0.12149098
0.13923322	-0.08638154	0.0838935	-0.08814851	0.10817546	0.23458219	-0.1989726	0.47386396	0.26778072	-0.03295746	0.03371293	-0.4641907	0.2521341	-0.31846276	0.20864336	-0.21625961	-0.22513065	0.08723407	-0.4377881	0.11987408	-0.6799713	0.12522417	-0.15590319	0.45680645	0.18480642	-0.34026787	0.12059833	-0.10005195	0.10798843	0.3118096	0.15535136	-0.14861037	-0.41380247	0.04083542	-0.054410312	0.117847964	-0.3786657	-0.016916618	-0.29712334	0.17862657	0.16897826	0.12362504	0.12249507	-0.17706178	-0.004269466	0.07172787	-0.26351163	-0.018158803
0.31651124	-0.096617565	0.2825801	-0.17981814	-0.09919846	-0.22511357	0.30460432	0.3855132	0.24601664	-0.5388582	0.17082818	0.028136503	0.07036364	-0.29075167	0.4494876	-0.15973002	0.09466088	-0.36673123	-0.15794806	-0.16811235	-0.2810936	0.11022775	0.3415354	0.12739986	-0.1587192	0.0067768944	0.3149981	-0.27486384	0.008024438	-0.06226187	0.2842703	-0.07079097	-0.03132028	0.040116955	0.0077607897	-0.05120067	-0.48985705	0.09743617	-0.07325526	-0.16220878	0.04442994	-0.088127665	-0.25846663	-0.192038	0.11680022	0.36860332	0.22508962	0.04108101
-0.2942345	0.2314271	0.0275474	-0.22569305	0.13743691	0.52084416	-0.19573523	0.10715624	-0.34285736	0.39031932	-0.34986794	-0.29193375	-0.2135391	-0.010831536	-0.12667158	-0.18549952	0.13964808	-0.32345518	0.05880335	-0.19403173	0.038392007	-0.023292935	-0.011400006	0.34332758	-0.2533505	-0.24754798	-0.24624674	-0.669057	-0.053373743	0.20939596	0.23750761	0.0060602403	0.43232402	0.25280184	-0.089432366	0.527123	0.23709507	0.023903226	-0.21711354	0.12086981	-0.25647748	-0.1563685	-0.13466565	0.013329146	0.1590714	-0.13678302	-0.11987445	0.09375049
-0.016764825	0.026738405	-0.098884046	-0.27415118	0.14332648	0.23595789	-0.26846138	0.087725	-0.4950254	0.10747556	0.25247598	-0.03125315	-0.062167395	-0.11490048	-0.015052443	-0.23303594	0.044488005	-0.031917647	-0.015440342	-0.3921923	-0.010115077	-0.12084713	-0.08786907	0.22248006	0.1283039	0.17542985	0.31242046	-0.082918115	-0.21545942	0.31117007	-0.35676184	-0.27067703	0.274452	-0.14103748	-0.1824128	0.07966191	-0.25314587	-0.112233676	0.46465397	0.03306098	0.026718697	-0.16329364	-0.27995872	-0.14456728	-0.017746024	0.34377888	0.44489065	0.12007214
-0.22188006	0.16415948	0.15135069	-0.30832362	-0.3032927	0.052168146	0.4304173	0.52601016	-0.4650935	-0.18158661	-0.18647152	0.0733409	0.008905783	-0.463416	-0.26466742	0.51415074	0.16397332	-0.22062632	-0.016525924	-0.23877707	-0.19040596	0.11447226	-0.18815158	0.13044836	0.20237994	-0.21846685	0.12907267	-0.36193886	-0.07883477	0.40066594	0.12580724	0.36500832	0.520152	-0.0055737495	0.12112669	0.11524433	0.14395434	0.16056344	-0.16107354	-0.10710386	0.23326902	-0.061777107	0.047840264	0.07441416	-0.0032372503	0.18972327	0.4119796	-0.2563825
-0.32507792	0.27588835	-0.11137302	-0.19990422	0.4020047	0.14747813	-0.19350573	-0.05147274	0.3421664	-0.27373502	-0.13763942	0.07664124	-0.1024233	-0.23685645	0.21431156	-0.19413929	0.00031585002	-0.1658987	0.13508298	-0.25552326	0.043737806	0.08451133	-0.12918492	-0.06829619	0.39307505	-0.38410273	-0.1448296	-0.19478902	-0.03121621	0.11290356	0.014432196	-0.4181945	-0.0032513563	-0.35317934	-0.095021255	-0.0840486	0.23510356	-0.029726917	-0.11843592	0.56104183	0.16539925	0.23761551	-0.22818343	-0.21324216	-0.16169944	0.107971825	0.17443626	-0.034404837
-0.28289932	-0.07291911	-0.30100176	-0.099347726	-0.20003106	0.041900437	0.1626108	-0.1591432	-0.017359184	-0.5316819	-0.8392376	0.23047142	-0.13862382	0.25133553	0.15206379	0.29078642	0.042379405	-0.25318742	-0.23006831	-0.27994958	0.11887111	-0.1911077	-0.38010773	0.27632746	-0.61895084	0.013699469	-0.23317431	0.18398671	0.23476928	-0.3886695	-0.12170929	0.22512633	0.20510888	0.09814759	0.48095235	0.6982113	-0.29399195	0.29712436	-0.125929	-0.08971969	0.13522616	0.17291568	-0.36076412	-0.35219598	-0.07718308	-0.17952982	0.18547082	-0.24663898
0.480502	-0.26096252	0.10180388	-0.34376848	0.08523385	-0.23449354	0.102668785	0.3629263	-0.00057837303	-0.21282448	0.026375473	0.067815445	0.47810194	0.33423236	-0.22684881	-0.34743538	0.03835174	0.1448239	-0.103815325	-0.03676679	0.2888354	0.37469894	-0.18883155	0.06260673	-0.31869215	-0.14292644	0.0039303675	-0.34356508	-0.21492997	0.25742596	0.13719192	0.3237279	-0.15012999	0.2415175	0.058040876	-0.07295343	-0.38730013	-0.19122374	-0.15443063	0.19495183	0.008931793	0.018876426	-0.22073157	0.08674233	0.16804183	0.2520115	-0.011386447	-0.012005381
-0.11501565	-0.1568336	-0.2243946	0.17860569	0.080999956	-0.017362805	-0.053874984	-0.25234774	0.1461372	-0.29278982	0.2579801	0.00532113	0.35619655	0.09895082	-0.062200848	-0.26904324	-0.04490502	-0.115469486	0.04582515	0.15018569	-0.1698883	-0.062437695	-0.4548219	-0.010005992	-0.056399193	-0.04350464	-0.0645232	-0.23132682	0.0773005	0.10523528	-0.15830013	0.031656217	-0.09808318	0.40464246	0.046115503	0.2904916	-0.17357713	-0.25808033	0.21447794	-0.40752482	-0.020898014	-0.34202957	-0.12905987	0.261213	0.3505463	0.32222307	-0.2742088	0.048383545
-0.05347947	0.23650995	-0.2795198	-0.15607922	0.29604584	0.724563	-0.2510782	0.121876046	-0.0002909738	0.050591674	-0.03223846	-0.17547078	0.023728717	-0.35129735	-0.11627459	-0.13111869	0.28287542	-0.019093696	-0.50450397	0.13896456	-0.19662498	0.04760188	-0.24524766	0.10203669	-0.023718242	-0.18060505	0.31526145	-0.023994425	0.30254558	0.16750333	0.016594034	-0.35481995	-0.42884582	0.1435401	0.2071909	-0.38405114	0.07120255	-0.023650553	-0.117614634	0.14245588	-0.16923657	0.13210936	-0.07046111	-0.18154451	-0.10540141	0.19361478	-0.28189865	0.009467566
-0.32451203	0.08187832	-0.21279149	-0.36884156	0.34986204	0.03776789	-0.2998478	0.06715308	-0.036886383	0.24386394	-0.06987735	-0.13530798	0.12677391	-0.080967605	0.030115247	0.07374463	0.09786777	-0.058017936	-0.3772728	-0.5058651	0.2650189	-0.13878082	0.20241436	0.3527347	-0.13109303	-0.15987356	-0.11747059	-0.10883274	0.18737186	0.3714724	-0.22230838	0.018679865	-0.023470331	-0.082527295	-0.31756774	0.23546235	-0.36188895	0.0407403	0.0842392	-0.26755798	-0.24946924	-0.16469358	0.3763814	0.43330863	0.070103385	0.01682688	0.29464948	-0.062241495
-0.17032988	-0.14280938	-0.01942777	0.32702255	-0.084463224	0.30902985	0.107687324	-0.033264518	-0.20793611	-0.11140434	0.3436151	0.306956	0.13011861	-0.35013717	0.18490243	-0.35879713	0.21326987	0.0068475306	0.14054878	0.14029883	-0.2956967	-0.4096916	0.21111184	-0.26171654	-0.13932852	-0.15991007	0.13983639	-0.036737394	0.33361405	0.29295513	0.12757595	0.3559359	-0.41236424	-0.23819369	0.031133564	-0.016126141	0.25915033	-0.28644007	-0.31797117	0.3695947	-0.25670898	0.20484859	-0.12208952	-0.041138362	0.1823518	-0.14762826	-0.071038924	0.09081433
0.21700719	0.4004822	-0.1617082	0.12986186	-0.2166087	0.03973972	0.004377058	-0.1990722	0.1892358	-0.0633474	0.15153398	0.25709087	0.0855931	0.40539813	-0.15654919	-0.32116067	-0.018045928	-0.055960007	-0.18170749	-0.08952202	0.007644624	-0.18679042	0.19910315	0.022459138	-0.14390984	-0.13145922	0.27242467	-0.24066277	-0.07788187	-0.20732053	0.27870724	-0.088841885	0.1317305	-0.159172	0.21727248	0.007934966	0.3141409	0.049889263	0.10862116	-0.039804462	-0.22597793	0.16781525	-0.02603302	0.13130292	0.101101026	0.28248614	0.2742118	-0.059696123
-0.26501015	0.21116059	0.32455087	-0.057832204	-0.6099935	0.19862743	0.59740794	0.15782261	0.20230567	-0.27074045	-0.3344193	0.18421416	-0.0829683	-0.15754826	0.44751155	-0.25150335	0.17058966	-0.3138158	-0.13695765	0.25019425	-0.29755834	-0.008102518	-0.0053306934	-0.061521858	-0.51362765	-0.2089384	-0.40016684	0.3411508	-0.0063275676	-0.26841694	0.017363288	0.121077776	-0.42766184	-0.07480399	0.14439692	0.3970063	0.019320475	0.14868271	0.38625956	0.31784183	-0.21838689	-0.17059906	-0.017437296	-0.017835576	-0.05812194	-0.35783124	0.5859862	-0.29398045
0.09190777	-0.022011343	-0.20654054	-0.18572058	-0.4966162	-0.47444806	0.38383365	0.11695552	-0.16964225	-0.16341697	0.010978105	0.34294626	0.055705696	0.347682	0.4333128	-0.6527837	-0.2573982	-0.46858007	-0.11154623	-0.016472455	0.09557807	-0.34901294	-0.05814661	0.21267536	-0.251547	-0.25978816	-0.2044902	-0.088733375	0.21029554	-0.19317713	0.33248565	0.36563754	-0.2222335	-0.25638235	0.28468138	0.41409948	0.07753258	0.4092211	-0.1971522	-0.18831064	-0.49417517	0.21863501	0.2541241	-0.20757411	0.0247622	-0.057894103	0.08015364	0.11732027
-0.4182843	-0.12191852	-0.27984342	-0.016426431	0.20754549	0.05533943	0.061824363	0.09515878	0.008241443	-0.26758227	0.12150048	0.26105392	0.118901625	-0.48634073	-0.15885188	-0.08461385	0.06292517	0.19071095	-0.076588884	0.17841923	-0.11873282	-0.26178977	-0.29935005	0.24452963	-0.39538035	0.08518878	0.29351324	0.05996302	0.25588727	0.047883313	-0.16296822	-0.21038914	0.05587291	0.2790066	0.30303755	-0.0007791227	0.092597686	-0.43917868	-0.12697096	0.13064805	0.07059322	-0.23158538	0.11393377	0.09215622	0.055766944	0.122217104	0.050917383	-0.002939921
-0.36001295	0.16892481	-0.18913238	-0.17050579	-0.08364692	-0.09193537	-0.14572068	-0.2836657	0.016974794	0.37639886	-0.18740132	-0.028191922	0.26953596	-0.017089525	0.4596731	-0.77370733	0.22145873	-0.51322836	-0.022837054	-0.13113603	-0.17980467	-0.2687313	0.44484958	-0.19251707	-0.07657994	-0.31509835	-0.41402543	0.17101835	0.40688255	0.19034931	-0.30680928	0.072153375	-0.042208523	-0.040023696	-0.46777615	0.16751996	0.39022684	0.08377943	0.17741272	-0.35841492	-0.58081484	0.072758965	-0.21147901	0.4576532	0.2251435	-0.093762495	0.29490834	0.0926097
0.18573104	0.18301938	-0.16854672	-0.36886373	-0.07339935	-0.3498901	0.4476346	0.30623803	0.061219964	-0.004292881	-0.466177	0.098129384	0.03916071	-0.17733823	0.0643129	-0.3370046	-0.1186749	0.15629253	0.26466754	0.21200767	-0.40506804	-0.52385366	0.16553107	0.19510567	-0.3866701	-0.21622404	0.1336556	-0.20449007	0.5364996	0.25069883	-0.11720139	0.21173897	-0.4307963	-0.36071378	0.07791142	0.18642314	0.023054123	-0.22502208	0.3438191	-0.04635656	-0.029173994	-0.05559389	-0.18336399	0.14645346	0.39693016	-0.26588568	0.21923763	-0.45019445
0.06939908	-0.17166902	0.22050256	-0.3940802	-0.15068331	0.17120941	0.14448112	-0.16244167	0.40510446	-0.21640226	-0.07976524	-0.30266327	-0.07075884	-0.33461118	0.14379437	-0.21929546	0.09836865	-0.33463818	0.4134136	-0.3329961	-0.07740436	0.1614319	-0.16498916	-0.05280723	0.034334604	-0.33076525	-0.09909588	0.076691136	-0.05556278	0.28952795	0.36950898	0.24290621	-0.16142896	-0.3727008	-0.12427099	0.27419972	0.0044953143	0.32653862	-0.32780814	0.34739795	-0.0874172	0.101060994	0.18190783	0.3980518	0.10512079	0.12090246	0.18853134	0.028802877
0.31295794	0.26667526	-0.048945975	0.1568788	-0.20042488	-0.081905626	-0.19430977	-0.15773898	0.14851546	0.034006186	0.018990949	-0.15587088	0.14971721	0.2540631	0.20141007	-0.14500754	0.055002782	0.32595128	-0.10165422	-0.22093278	0.25623667	-0.08200429	0.1061619	-0.040040433	0.0030838922	-0.2924739	0.19591261	-0.118446015	-0.23633872	-0.18969063	0.14504531	0.12101453	-0.041573282	-0.06603789	0.10656373	0.16497761	0.23264274	-0.16374516	0.18892778	0.026566487	-0.020164596	0.24088034	-0.015827134	0.2901082	-0.18070878	0.4232278	0.15866305	-0.05894172
0.14510511	-0.17734973	0.31462994	0.040587455	0.18525179	-0.2244896	0.25662982	0.19181818	-0.16791987	-0.44184515	-0.046328813	0.026428828	-0.057307225	0.2429143	0.05594335	-0.2984333	0.22729684	-0.09910026	0.38551337	0.21174084	0.043264598	0.24315512	0.35517502	0.2399535	-0.45504978	0.12891749	0.22098154	0.15516381	-0.1197836	0.07163564	-0.041368593	0.3397614	-0.22878592	-0.12091882	-0.20218843	-0.250809	-0.48651418	-0.038686708	-0.017497921	0.020130506	0.0464162	0.20484142	-0.05169749	0.11089952	0.2611014	-0.08534566	-0.014662247	0.019060168
-0.12361744	-0.19974235	-0.076513186	-0.12617834	0.1259764	0.064352274	0.2042173	-0.09027143	0.28866532	-0.029413529	0.016649244	-0.1304846	0.16056809	-0.30723286	0.3156627	-0.00062625884	0.39975974	0.30807462	-0.20266683	-0.24048817	-0.1250362	-0.18984672	-0.052204635	0.40948	-0.37070316	0.08364779	-0.056760684	-0.058899686	-0.053046994	-0.1878076	-0.016118992	-0.23480555	0.3533119	0.072148666	0.067997694	0.0747625	-0.45620695	-0.17676935	0.12033282	-0.021906635	0.13411224	-0.30910546	0.1500384	-0.18717062	-0.09446932	-0.21496694	-0.10144529	-0.23762323
-0.20717259	0.037544582	0.15992309	-0.6286999	-0.38788086	0.2272654	0.20794274	-0.18981919	0.31891868	-0.16378875	-0.30334294	0.36403105	0.13448167	-0.19504456	0.56236994	-0.028112976	-0.1790899	-0.30395058	-0.32549524	0.12456308	-0.22789532	-0.023821432	0.0083889365	0.12749885	-0.7285085	-0.38498986	-0.41284314	0.19096974	0.28498718	-0.03874436	0.33687901	0.507408	-0.2002629	-0.31846774	-0.06792066	0.2682167	0.13146392	-0.06121871	0.30519617	0.20937943	-0.14176814	-0.008443218	0.07542345	-0.21869653	-0.14879428	-0.0640906	0.54989344	-0.18499753
-0.15928489	-0.19934522	-0.34576243	-0.21808858	-0.23336074	-0.026640868	-0.046311695	0.10255745	-0.26086533	0.25808352	-0.124910906	0.003099178	-0.15219142	0.4548169	0.10092965	0.100552626	0.2856272	-0.05564016	0.04566397	-0.2848359	-0.21719337	-0.17629434	0.34989515	-0.2698441	0.0047555235	0.07210528	-0.24526279	-0.06747963	0.4384604	0.13646463	0.15645623	0.27658427	-0.41639608	-0.45347488	-0.17292991	0.40273026	0.0933311	0.37727758	0.4895819	0.22066718	-0.6772299	-0.20504984	-0.095227584	0.30258033	0.27929324	0.100820236	0.06382845	-0.16899602
0.036596175	0.22542115	-0.16734916	0.057293758	-0.4696522	-0.27344525	0.07397955	-0.03329043	0.0039224396	-0.35093564	0.032832436	-0.03397736	0.15079127	0.11056697	-0.21172634	-0.23597059	0.12730873	0.124821	-0.14011115	0.12020343	0.13197811	-0.44079238	-0.010069006	0.18901066	-0.14394376	-0.38515568	0.3667338	-0.1817165	-0.19644049	-0.1602817	0.15569234	0.022088444	-0.43924937	-0.35998446	0.24260336	0.10652027	0.10061684	-0.06312982	0.040389996	0.3425425	0.12637514	-0.29108408	-0.16202354	0.19260806	0.14959085	0.14785045	-0.21991982	-0.45621684
0.12714332	-0.2538269	-0.005400096	0.24284434	-0.16632362	0.04649468	0.092306286	-0.102460876	-0.18394125	-0.25324664	-0.15892476	-0.07109424	-0.2168696	-0.1576297	0.094665825	-0.51569974	-0.29149562	0.16355221	-0.1841331	0.10444953	0.32012	-0.25816637	-0.003243282	0.027486134	-0.2291094	-0.28533354	-0.042791545	0.26156586	-0.1843076	-0.2675873	0.18761699	0.34778303	0.16222537	0.26557404	0.42203498	-0.19186713	0.11911008	-0.16464378	-0.016022967	0.22154436	-0.24835153	-0.21200904	-0.38425195	-0.081251964	0.028199844	0.046295185	-0.0033028517	-0.26936588
0.1948761	-0.16049837	0.02880812	-0.42307928	0.1683713	-0.12425114	-0.04091538	0.35427174	0.32535964	-0.33276287	-0.18375558	-0.2990177	-0.015252491	-0.14374861	-0.12506351	-0.27342728	0.11105636	-0.05307526	-0.24583386	0.13935374	0.0013579901	0.23010378	0.43453905	0.042892784	-0.23387906	-0.12518993	0.3729455	-0.23507264	0.15970802	-0.008637942	-0.03796628	-0.20740266	0.13253531	0.36161247	0.19863369	0.25815487	0.04344283	-0.0737004	-0.039252643	-0.11707004	-0.14911811	0.2702426	0.019262347	0.08428859	0.24641494	0.16238837	0.15976948	0.27528477
-0.25270692	0.06957122	-0.16124098	-0.14611231	-0.10098307	-0.50582737	0.004768126	0.37014872	-0.061951425	0.06602245	0.08414718	-0.004835537	0.34407595	-0.28108472	0.44433153	0.10892297	0.008531949	0.36278465	-0.16833885	-0.0711151	0.25236696	0.28795174	0.22837307	-0.13180692	-0.32281673	-0.056801293	-0.020380476	-0.386479	-0.3047227	0.060194306	0.06644951	0.26728585	-0.106322125	0.18853533	-0.008579008	0.47066125	-0.19753705	-0.30617297	0.18760061	0.4506005	-0.011867782	0.37517488	0.05498505	0.15934277	-0.3912158	-0.15122224	-0.002297915	-0.10593338
-0.20335697	0.13925968	0.19903058	-0.21160276	0.20263606	0.089721195	0.2578138	0.29230228	-0.40010494	0.33811957	0.10629987	0.05330154	0.22233857	-0.1515008	0.2581138	0.2386114	-0.009001855	-0.2372931	-0.5302987	-0.078464314	-0.20981832	0.14658716	-0.26693362	-0.10842157	-0.19494697	-0.31555185	0.010697206	0.039542474	-0.36035946	0.39188728	-0.37951684	0.25907674	0.025448425	0.2994332	-0.052896835	0.06834144	0.049160898	0.3357873	-0.08744651	-0.012432828	-0.16453548	0.109601356	0.43172458	0.2971152	0.046957556	0.043816756	0.2560986	-0.024459235
0.414028	0.44394872	-0.22814676	0.07012567	-0.4627985	0.17450888	0.20741174	-0.20445812	0.017379293	-0.0384848	-0.34239453	-0.35761562	0.101587884	-0.19251877	0.16710693	0.33373198	0.23887618	-0.36253864	0.11941412	0.22077248	0.1033201	-0.30704626	0.44616824	-0.025234343	-0.09138777	-0.454903	-0.3285969	0.1779051	0.17218518	0.3564648	0.15059702	-0.12895545	0.16358471	-0.13382551	0.31866702	0.20869294	-0.011031241	-0.26529035	-0.11011463	0.075406745	0.19883415	0.22822645	-0.027935326	0.41722503	0.10395411	0.14740963	0.14473352	-0.023075007
-0.13241394	-0.03406763	0.05195704	-0.41337708	0.2306333	0.7076238	0.009408615	0.1816514	0.29560828	0.32756534	0.16069464	0.24087144	0.018359674	-0.066400416	-0.11753123	0.05314091	0.40803063	-0.3126175	-0.13108513	0.041023623	-0.34003487	-0.12069893	0.3334105	-0.012922619	0.39573944	-0.16861318	-0.18362872	-0.2312005	-0.17666104	0.08986085	-0.6216258	-0.5551327	-0.4456462	-0.17195155	-0.11981188	0.38689944	0.35470626	-0.017582156	-0.24849673	0.4021648	-0.3732868	0.10906609	0.19990677	0.011730038	-0.017822888	0.17228413	0.18185814	-0.09819885
0.17094563	0.45454696	-0.46464473	-0.5218325	0.17778428	-0.013444604	0.47531727	-0.07898808	-0.06531313	-0.34043673	0.17956135	-0.8143025	-0.2843329	0.3403133	-0.049074348	-0.49156013	-0.39251184	-0.5299941	-0.471247	-0.23727092	-0.18495893	-0.3911341	-0.034265127	-0.019868597	-0.100077495	0.17904857	0.35761285	-0.028628774	0.33125073	-0.023174914	-0.048750613	0.37308937	-0.34698442	0.3267842	0.007451798	-0.025608666	-0.05275415	0.086681835	0.0002539957	-0.088767126	-0.011900372	-0.059218664	0.049432196	0.3818496	-0.08603121	-0.2501489	0.07429372	0.17087913
-0.01897819	0.112311505	1.5610014e-05	-0.25345188	0.17947994	0.037567183	-0.007710642	0.17299478	-0.060174476	-0.030747749	0.015390973	0.012949112	0.33371416	0.16374114	-0.31028825	0.26286697	0.03833656	0.038235802	0.032667633	0.03527549	0.07301031	0.19631882	0.07805053	-0.2221471	-0.274913	0.18979688	0.07964587	0.19433907	0.29660997	-0.002887291	-0.09582275	0.18312502	0.1777057	-0.19926417	0.08378317	-0.14458886	0.03959467	0.009131571	0.19600974	0.099883854	0.11813115	0.28569973	-0.3292323	-0.16894193	-0.11937202	0.11078699	0.38467494	0.25141037
-0.13392869	0.009265454	-0.22196938	-0.18661438	-0.29056787	-0.0561815	0.06408129	0.11632238	-0.104893856	0.26185486	0.27664715	-0.29209614	0.37040052	-0.12376888	0.24793987	-0.3685423	-0.0625244	0.21800482	-0.13276841	0.24003609	-0.40009242	0.19763286	0.30437568	-0.29289365	-0.21427529	-0.15708701	-0.35782725	-0.13059658	-0.116640516	0.055650406	0.11788278	0.0794756	0.23588753	0.20139179	-0.14086786	0.25265515	0.0355373	-0.18584196	0.09755625	-0.120127276	0.099852964	0.28467	-0.2333738	-0.0885878	-0.14044456	-0.15608338	0.17022657	-0.15385969
-0.15135823	0.03958165	0.042074025	-0.27642834	-0.16540854	0.06798238	0.15612136	-0.18829566	-0.40340486	0.029964969	-0.3953515	0.041320406	0.27552187	0.28983346	0.17374928	0.1854558	0.28241658	0.006998339	0.06443189	-0.039247327	-0.2700814	-0.3068977	-0.44082683	0.17592992	-0.09323431	-0.0474059	-0.2050449	-0.22838369	-0.11455945	-0.11308086	-0.33516854	-0.16376796	0.06927876	0.083940394	-0.068440706	0.12510376	-0.05949498	-0.37376472	-0.3245812	0.256603	-0.38116407	-0.23983413	0.10558355	-0.1237942	-0.07021116	0.49872407	0.15129256	-0.055943694
-0.292263	0.14022781	0.01127232	-0.10899538	-0.093569204	0.2832531	-0.013577656	-0.01977875	-0.010081045	-0.17778715	0.023285562	0.14627735	0.21129847	-0.18104787	0.04451201	-0.25131032	-0.17714201	0.011316482	0.06594093	-0.2241366	0.05136305	0.14529592	-0.48689035	-0.1488496	0.29236227	0.061343364	0.19025567	0.05940607	-0.41803333	0.06006386	-0.057281278	-0.18659532	0.06055929	0.02850253	0.23653704	0.33717117	-0.0329125	-0.28919542	0.21895027	0.078812756	0.20928343	0.07846875	-0.1458992	0.124586694	0.20058186	-0.1288668	0.28235048	-0.27078608
-0.1326314	-0.31705794	-0.24234712	-0.06387652	-0.046031017	0.010324375	-0.19909078	-0.101923466	-0.055986263	-0.286074	0.22904402	-0.0957594	0.013474359	-0.23468646	-0.08413314	-0.20189996	0.021129658	0.07976978	0.21377234	0.17523168	0.007282112	0.0016760285	-0.025563098	0.1635079	0.040093545	-0.40242606	-0.21037726	0.21138424	0.37610027	-0.2823399	-0.09495403	-0.13888164	0.056831114	0.24119814	-0.036406476	0.09596764	-0.17159551	-0.44397128	0.039226454	-0.26004913	-0.35426164	-0.16319808	-0.06297783	0.13623913	0.21237057	-0.09469335	-0.24264207	0.11337624
-0.04603565	-0.16238685	-0.16920325	-0.06327318	0.17784844	-0.28302142	-0.32894453	-0.23251913	-0.3761398	0.21641338	0.18913437	0.2782414	0.41733524	0.27052972	-0.3143538	0.23408036	0.021137096	0.09369611	0.22207586	-0.047427468	-0.2176414	0.18188159	-0.12289953	0.26940203	0.14910978	-0.100403234	-0.1630599	-0.18612069	-0.0035187616	0.38757786	-0.3685815	-0.42141166	-0.19813794	-0.10001083	0.34767854	-0.25354663	-0.16834652	-0.7735541	-0.04889695	0.03598058	0.38583717	0.33662274	0.043357104	0.2659722	0.13709928	0.04762555	-0.24080126	-0.1959596
0.36266437	0.13259654	0.09246255	0.03080962	0.24090813	-0.23933762	0.32187572	-0.2059128	0.15216213	-0.26821986	-0.15001786	-0.0064342115	-0.31508902	-0.21889779	0.27172744	-0.03722747	-0.08910924	-0.19694899	0.09587443	-0.3566346	0.09589072	-0.1010014	-0.3716625	-0.31327948	0.2267887	-0.3657688	0.0010325534	-0.3425673	0.058953244	0.32545647	0.18923967	0.22984621	-0.20894457	0.036854267	0.27526265	0.2763143	0.18168171	-0.19572999	-0.2509285	0.07153156	-0.5673257	0.16783315	0.33614194	-0.01606229	-0.43368372	0.13103229	0.30093998	-0.7703735
0.076068096	0.28862822	-0.38606867	-0.14378701	0.09497679	0.1688816	0.5257009	0.062780455	-0.17622031	-0.13023324	0.13755074	-0.090495385	-0.30916995	0.2180187	-0.20276129	-0.10737406	-0.11360823	-0.29348865	-0.3346604	-0.21500655	-0.09741375	-0.28529915	-0.3183253	-0.049711306	-0.4305708	0.18398632	-0.0073929965	0.007557158	-0.078242525	0.3261737	-0.20579582	0.47854948	-0.34860474	0.33985734	0.7723149	0.61587536	0.27517948	-0.2763694	0.106893785	-0.25506192	-0.5863516	0.39515528	0.14794227	-0.24070708	0.22352612	-0.33881947	-0.05125776	-0.2562513
0.3477625	0.2799828	0.1576056	0.041046306	-0.24287476	0.180664	-0.515041	0.37922654	0.30837068	-0.04390578	0.0979921	0.037998218	0.34911284	-0.36368874	0.08241606	0.093392886	0.2704191	-0.23808187	-0.33832327	-0.109482795	-0.47195497	-0.18296616	0.03172754	0.15080282	0.2894405	-0.21650873	0.20799802	-0.116631806	0.66527295	0.4475715	0.09025723	0.0686671	-0.35633588	0.23069489	-0.0046440987	0.030230423	-0.46970084	-0.17860249	0.23503049	-0.009351721	-0.15219495	-0.16837192	0.2794358	-0.13872041	0.44841397	0.15821023	-0.2818652	0.08789345
0.18938592	0.28490332	0.11339212	0.38632467	-0.13366121	0.091749825	0.4517128	-0.03691606	0.18619578	0.015778154	-0.1145037	0.110373355	-0.05241991	0.28283972	-0.31401137	-0.11038057	0.15082823	-0.28532785	-0.10230744	-0.13737053	-0.10007365	-0.04083206	-0.07971782	0.20084077	-0.20525438	-0.3478463	-0.06422846	0.114122294	0.023010999	0.46606925	-0.23479073	0.003591912	0.038341355	-0.08472647	0.024712637	0.3256831	0.12389927	0.19446859	-0.17254959	0.24222721	-0.20403798	-0.33814865	0.119322136	0.007551157	-0.50698155	0.20009105	-0.09397873	0.35588357
-0.0057730735	-0.060915265	-0.22743915	0.22248425	-0.2626192	-0.034210708	-0.22656883	-0.28552562	-0.15447101	0.22031939	0.28048313	-0.31256956	0.21990958	-0.27730885	-0.063014455	0.34027004	-0.20040241	0.10195016	0.2330919	-0.1250869	0.08676539	0.09971058	-0.21142122	-0.27403677	-0.029964672	-0.0070020114	0.18829568	-0.36383572	0.19917063	0.029431798	0.069912635	0.1099783	-0.111505724	0.25597292	0.2516029	0.041544143	-0.06567109	0.14819792	0.1102688	-0.13157092	-0.040403035	0.08524371	-0.047764778	-0.07011081	-0.022390356	0.14740838	0.23089908	-0.20207678
-0.21037784	0.18969923	0.30501878	-0.024962507	-0.03824226	-0.14449698	-0.09314067	0.096252926	-0.16416562	0.030201394	0.3088065	0.25385138	-0.13128047	-0.48545334	0.08359419	-0.17206302	-0.2022266	-0.12958592	0.25912526	0.14114614	-0.37576866	0.11623571	-0.35390142	-0.17415476	0.19053252	-0.12449576	0.35084507	-0.025468007	-0.07730625	-0.090736486	-0.31584755	-0.09556431	-0.17300914	-0.17766856	0.44678795	0.3610974	-0.3463441	-0.27344134	0.10598667	-0.10756432	-0.08396254	0.24780144	-0.04874757	0.17726535	-0.13777629	0.18235508	0.17099592	-0.20858914
0.06848298	0.113548875	-0.25846225	-0.066008225	-0.18561353	-0.3400875	-0.26370624	-0.13138354	0.002166618	0.1570282	0.25287104	-0.15938336	-0.03941874	0.058877956	0.3800729	-0.111660495	-0.47193584	0.30227748	0.035283487	0.1916716	-0.13232847	-0.18063016	0.13554117	-0.09705064	0.032381024	-0.08102064	0.014953497	-0.0813508	-0.023950877	0.24864879	-0.51298046	0.08525151	-0.07746175	0.046781216	-0.17470965	0.11118123	-0.26807722	-0.13494763	-0.42436495	0.31256247	-0.15296052	-0.16674878	0.15936418	-0.11856492	-0.05661883	0.09943743	0.22655678	0.1298066
-0.25341132	0.30568898	-0.027876915	-0.15686299	0.35294423	0.09597785	-0.2728372	0.04754876	0.18256508	-0.14767718	-0.006580336	-0.10108259	-0.10581451	-0.20120515	0.1691099	-0.23944327	-0.54740673	-0.30427724	-0.28130376	0.065318756	0.1256171	0.08269927	0.23395179	-0.15495995	0.4390098	-0.2954858	-0.23731677	-0.34186825	0.3197869	-0.18056852	0.018677104	-0.4213359	-0.034245964	-0.30891532	0.042782743	0.21383183	0.17592475	-0.11983063	0.09144535	0.08745271	0.049346536	0.09556505	-0.3284576	-0.3549465	-0.24157785	0.24367888	0.1492786	-0.1797799
0.24133338	0.46262845	-0.37551945	0.40953475	0.34480205	0.11576312	0.5240679	-0.32493335	0.22627641	-0.29164684	-0.15539792	0.3790169	0.07038784	0.104586095	0.077919625	0.21990655	0.5558649	-0.32449514	-0.077837765	-0.10355457	-0.29260066	-0.13065892	-0.07111055	0.35531574	-0.5065267	-0.31758732	-0.19819811	-0.16251865	0.20227909	0.2818247	-0.33659	-0.14821835	-0.06479561	-0.034490492	0.31453544	0.20412594	-0.06667955	0.13132705	-0.3037972	0.2003072	-0.45222715	-0.19087005	-0.11400308	-0.26257434	-0.17899695	0.49734178	-0.08900014	0.065378934
-0.25839844	0.19981052	0.2088818	-0.24853584	-0.14130354	0.05730408	0.15769257	-0.007844496	-0.0023596808	0.04839329	0.103334315	0.17950219	0.23726821	0.20367233	-0.26985398	-0.18418172	-0.10412093	-0.06145229	-0.13309202	0.046792563	0.15294257	0.066036806	0.0011790672	-0.2750184	-0.22498395	0.0006628455	-0.074163154	0.21945195	0.1356527	-0.07058995	0.0022024978	0.1372479	0.31009358	-0.15360993	-0.15929608	-0.24089213	-0.24923445	0.034477957	-0.03906312	0.12783676	-0.066177286	0.2202739	-0.107014515	-0.26654342	0.31061244	0.10926807	0.10583919	0.110556364
-0.037978284	0.37826905	0.38822037	0.39333078	-0.3377057	-0.14065936	0.12071128	-0.31460583	-0.012204232	0.039143883	0.14822593	0.19634116	-0.062037136	-0.2637592	-0.11090074	0.156559	-0.1951038	0.15782894	0.10435749	-0.012413251	0.17559393	-0.107375875	0.13674189	0.13641554	0.10050061	-0.22751589	-0.04916045	-0.288527	0.1531743	-0.27053186	-0.11426297	-0.04702896	0.2717506	-0.061355703	0.38512948	-0.3987013	-0.4352404	-0.36801863	-0.48162696	0.17113957	-0.0962713	0.34627056	0.023907416	-0.050515626	0.5981782	-0.059238102	-0.19316192	-0.15525663
-0.030023867	-0.4972978	0.19702153	0.20949024	0.108058006	-0.33496934	-0.21464926	-0.2742126	0.11119915	-0.01564946	0.24812171	-0.031162689	0.024780735	-0.23497966	0.15107048	-0.3424933	0.3947984	0.22797368	-0.3612875	-0.35119718	0.058692	-0.14040817	-0.02177173	-0.0903894	-0.25316364	0.20496844	-0.090907924	0.23867951	0.28207862	-0.017229378	-0.08282436	0.11136113	0.14556903	-0.15208904	-0.05936164	0.4796943	-0.40416148	-0.41130322	0.038717292	0.051152874	-0.19338152	-0.15783967	-0.037765488	0.28203905	-0.025679477	0.011503761	0.21284679	-0.09495091
-0.060760166	0.27336887	0.4001394	0.0044598975	-0.2074026	0.047401838	-0.15830274	-0.39570805	-0.27487108	0.17524016	0.17877668	-0.023635197	-0.49709368	-0.15028518	0.03605137	0.04445189	0.23450828	0.040270668	0.14786567	-0.12769823	0.09155503	0.04479218	-0.22797276	0.21786968	0.28800514	-0.1723062	0.44639012	-0.27248493	0.16371752	-0.29158133	-0.32693473	-0.2878067	-0.14945614	-0.10611304	-0.10588948	0.5558404	-0.24021295	-0.028763957	0.24783221	0.073829815	-0.06419667	0.11888686	-0.5844634	0.20785296	-0.18271099	0.33638242	0.06242655	-0.13347666
0.14498682	0.12560846	-0.47715643	0.020222342	0.042669013	0.17546016	0.24324289	-0.3688716	0.0019665402	-0.1989788	0.2972214	0.1734997	-0.04850745	-0.11628683	-0.098220505	0.20007807	0.1315473	-0.22419061	0.14627002	-0.02881699	-0.053353734	0.22570203	0.36728626	-0.3493145	-0.38210616	0.08128046	0.09091847	-0.025464095	0.24175526	-0.10298908	0.054346476	-0.055563103	-0.5070393	-0.33121428	-0.30733758	-0.07893539	-0.060890913	-0.103731394	-0.114711985	0.10494526	-0.31543472	0.06187756	0.0913883	-0.045253627	-0.0588464	-0.039187048	-0.13920799	0.032174043
0.29256925	-0.16291714	-0.2169701	-0.30900297	0.40555286	0.17382836	0.53697735	0.28780586	0.29132655	-0.044745527	0.15860347	-0.23913403	-0.12238189	-0.045058377	0.03605301	-0.05984481	0.13350147	-0.08701986	-0.09171118	0.31315076	-0.24074753	0.010469913	0.10103477	0.31146228	-0.15705216	-0.18857615	-0.06985366	-0.30367586	-0.54852694	0.15145421	0.24456789	0.17150775	-0.08815808	0.21925303	0.16480923	0.21623757	-0.18969895	-0.25997508	0.0105469525	-0.15643929	-0.19317712	0.2254089	0.12487285	-0.17665972	-0.025007328	-0.1322097	-0.124995075	0.014261323
-0.11031278	-0.092046104	0.16258402	-0.0044129975	0.33714232	-0.54063696	0.26214218	0.25886184	-0.13434352	-0.10854743	-0.28507447	0.22197253	0.18964475	0.15930088	-0.17418545	0.023458295	0.06327491	-0.12282422	-0.27715513	-0.11361821	0.10718213	0.09043775	-0.2689813	0.32244015	-0.27639663	-0.22563626	0.2246258	-0.16713168	-0.34477386	0.24177498	0.22035971	0.02719672	-0.40242493	0.35765395	0.33027512	0.1717401	-0.4655579	-0.41821906	-0.3753	0.25499776	-0.11966488	0.2645994	-0.33631808	0.22269376	-0.07727126	0.1628006	0.037388418	0.12147643
0.066759564	0.110726416	-0.00220186	-0.26363334	-0.10372077	0.115351595	0.17030823	0.36948305	-0.027924396	-0.039726917	0.15516007	-0.4600541	0.3557846	-0.25697336	0.49898463	-0.17554209	0.45139065	0.3222966	-0.13953027	0.04080897	0.13322377	-0.36268243	-0.16482997	0.09886258	0.2128188	0.26805454	0.2372713	0.07206048	0.2573291	-0.33061138	-0.004208292	-0.11524062	-0.08153288	-0.04886778	0.14231293	-0.121500134	-0.08108588	0.4113954	-0.17205118	0.34942645	0.3790182	0.27121174	0.19685778	-0.24247347	0.22008103	-0.13125995	-0.03748245	-0.32221577
-0.39967918	-0.27793255	-0.089184485	-0.1410786	0.03255703	-0.038471423	-0.047838062	0.053789318	0.04170738	0.057135627	0.18770422	0.20570064	-0.44668663	-0.2959461	-0.07979242	0.25218356	-0.005362903	-0.034704972	0.010804006	-0.3111189	-0.104929104	-0.38000622	0.11368113	0.27180314	-0.35118797	0.013067408	0.27977228	0.2877476	0.12297008	0.41796714	0.19411607	0.19686386	-0.023742393	-0.16931802	-0.029957647	0.116444975	0.23574363	-0.08997151	-0.37912565	0.71269894	-0.21762997	-0.19606072	0.13667761	-0.13869835	-0.30615956	0.13039222	-0.15213324	0.25702053
0.20007206	0.31216913	0.12985055	-0.35447058	0.013557731	-0.107007675	-0.08257684	-0.09251432	-0.09339066	0.19054759	-0.23075789	-0.080170855	-0.2157543	-0.022020238	-0.28712404	0.0016002816	-0.41774982	0.24867728	-0.08484181	-0.05597249	-0.14377579	-0.27798402	0.01321971	-0.28434157	-0.35245928	-0.33186698	0.018598342	0.38625938	0.10555113	0.0038295349	0.043862835	0.12812646	-0.25047773	0.13663213	0.049739175	0.013483005	0.19718227	0.14366838	-0.17596428	0.04568967	0.09064297	-0.3312684	-0.010624921	0.004235062	-0.14172998	0.1953951	0.13036218	-0.06072064
0.021037837	0.12472927	0.117222786	-0.37316507	0.0284453	-0.10663726	-0.24532288	-0.28296098	-0.020417467	0.12794675	-0.33304718	-0.38694945	0.20723638	0.17988707	0.0031132686	0.06665708	0.29869395	-0.15046464	-0.24072537	-0.14898494	-0.08533044	0.2903214	-0.32471842	0.13672297	-0.37238783	-0.1991119	0.014483945	0.06580186	0.25637886	-0.22906978	0.47169158	0.30763435	-0.23969916	0.15784794	0.37534842	0.20789985	-0.2370972	0.46671754	0.13183191	-0.45742092	-0.04514974	0.09612315	-0.48237658	0.23489462	-0.12917086	-0.49735638	0.3406903	-0.24186417
0.27261695	-0.10124055	-0.17120011	-0.3574064	0.13641423	0.3799186	0.16074882	-0.26805913	-0.41856816	-0.023310784	-0.26737514	-0.26383898	0.27972955	0.28782734	-0.15583612	-0.004444121	0.036537923	-0.0036512	0.18872511	-0.2903151	-0.2151453	-0.7321744	0.08477898	-0.2282664	-0.20826522	0.09278719	0.07606916	-0.29420617	-0.004458435	-0.09859627	-0.32791403	-0.06602472	0.028948415	0.61414456	-0.041403405	-0.37063807	-0.39526042	-0.23167466	-0.006763962	0.31720406	-0.16022341	-0.26767457	0.010253198	-0.20018026	-0.20215967	0.28248373	0.12455397	-0.25694883
0.117488295	-0.061636824	0.06606115	-0.028704384	0.55677253	-0.28462037	0.37928918	-0.06175138	-0.30466706	-0.2610165	-0.16660668	-0.22777998	-0.16478257	-0.03075362	0.3274242	0.045362946	0.1533529	0.062276088	0.10380584	0.34041053	-0.159916	0.28361818	-0.21191587	0.04580155	-0.004268684	0.06789303	0.10499743	-0.20767689	-0.22140749	-0.11738369	0.32672578	0.56832826	-0.12533148	0.07760801	-0.09663064	0.3270699	-0.34390157	-0.2908213	-0.1520565	0.23046142	-0.6557936	-0.118448764	-0.21005833	0.14559011	-0.22225323	0.31542215	0.13631368	-0.029874755
0.062478255	-0.3300024	-0.12369825	-0.05619313	0.27883807	0.18316686	-0.0032455488	-0.38130563	0.12177375	-0.24536973	-0.08016321	-0.18449093	0.3880379	-0.12079558	0.36512238	-0.008195539	0.3192491	-0.01363459	-0.39333928	-0.14983977	-0.16418453	-0.21471062	-0.39817792	0.15495712	-0.2090348	-0.00044020763	-0.28246224	0.022082634	-0.10271025	-0.19054726	-0.031704836	-0.44521287	0.22792609	0.11841654	-0.030668441	0.12641719	-0.15249383	-0.42624024	0.060127642	-0.2385265	-0.011628623	-0.1399812	-0.13962308	-0.24091238	-0.06013918	0.069335595	-0.2489557	-0.225113
0.2992963	-0.30535263	-0.25517106	0.3197171	0.22674373	0.09694266	0.4578265	-0.20261303	0.18910313	-0.2426946	0.12704676	-0.0630428	0.4438199	-0.20418374	0.11818513	-0.17208038	-0.32742998	-0.27033928	0.11967096	0.3099808	-0.2787247	0.32649028	0.021611206	0.40134197	-0.44046614	-0.36225894	0.29078737	-0.109498605	0.11976373	0.20818754	-0.3233543	0.05223842	-0.22747363	-0.16219185	0.57605225	-0.13829298	-0.18499082	0.06346049	0.3073914	0.10663874	-0.2346086	0.120017506	-0.031636987	-0.15782551	0.54344106	0.29406765	0.19069108	-0.19667782
0.15405482	-0.24761635	0.29697528	-0.19735101	0.079872824	-0.12388285	-0.021644045	0.08136264	0.18425006	-0.05369255	-0.097075626	-0.09871273	0.19327907	0.20061104	0.17219771	0.20904437	-0.017740825	0.05904381	0.07256035	0.1603435	-0.16697712	-0.059500355	0.06194937	0.2512546	0.03887875	0.2440079	0.16735396	0.12565328	0.2388262	-0.19063911	0.1421151	-0.01689479	0.0812669	-0.17778704	0.12600376	0.333798	0.012949666	-0.1737402	-0.26978788	-0.048771445	-0.37905708	0.38638678	0.31697136	-0.10320956	0.36644742	0.0543036	-0.28159237	-0.12393416
0.36659703	0.21710542	0.0038793827	-0.32386246	0.22583407	0.08828408	0.12547253	0.034515172	0.3652669	0.395674	0.042237803	-0.15640552	-0.13946603	-0.0077010025	0.24742937	0.07156121	-0.13112059	0.064932294	0.3502036	-0.22014458	-0.03695437	-0.5092274	0.08107834	-0.24983737	0.12265424	-0.051672358	-0.19237117	-0.095041856	-0.1364569	0.30284977	0.24853885	0.018076949	0.27578822	0.08513947	0.4600702	-0.06470092	0.38272744	-0.48554552	-0.34937084	0.26222247	0.09510711	0.12377909	-0.23644279	0.2430768	-0.021302555	-0.13725016	-0.109414354	-0.31652188
-0.0985009	0.29343244	-0.4307157	0.09669174	-0.6325203	-0.019765606	-0.17904474	-0.1715745	-0.1990838	-0.33090836	0.03378091	0.16010216	0.64430124	0.023975244	0.103263244	0.4474358	0.21979971	-0.0679717	0.29223314	0.3591318	0.17072725	-0.18585254	-0.66595274	0.049282726	-0.17930043	-0.23952036	-0.16295417	-0.4073857	0.3513185	0.28086293	-0.31291828	0.13920127	0.05238962	-0.11762459	0.060559593	-0.112905264	-0.14090118	-0.3970816	-0.38063523	-0.033072915	0.2139806	0.042047873	-0.11659924	0.09482063	0.74561256	0.050916027	-0.23395687	-0.25374714
0.27742702	0.12937117	-0.3773743	-0.6970572	0.07845588	-0.32068416	0.41643506	-0.01091849	-0.028250623	-0.18035534	-0.09444556	-0.19237733	-0.01126679	0.06762826	0.33286187	-0.0015466129	-0.30369052	-0.75393957	0.043225937	0.1558	0.10176268	-0.24602315	-0.34731352	0.032198284	-0.2111817	-0.21670312	-0.09928414	-0.04278613	0.36587307	-0.24480534	-0.29048222	-0.0910086	-0.327809	0.11675843	0.4997075	0.25972074	0.04580508	-0.25656757	0.52434105	0.11509204	-0.5201768	0.636728	-0.16106252	-0.13851866	0.6040115	0.22894159	0.21042176	0.1746208
0.08426405	-0.16532442	-0.14275463	-0.14361681	0.36651212	0.07494907	0.04650672	-0.012656613	0.16738755	-0.07792652	-0.08598703	-0.23084958	0.27952233	-0.29995194	0.3595469	-0.5010103	-0.03333695	-0.10798768	-0.14355211	-0.3123719	-0.29238454	0.2332454	0.15711604	0.36348775	-0.26063266	0.075954005	0.10414954	-0.028164996	-0.368285	-0.04686886	0.34335697	0.19042501	0.03758172	-0.14858766	0.16317166	0.062325723	-0.19969314	-0.094818786	-0.1200615	0.09709326	-0.0074204225	-0.1636677	0.23294364	-0.14978303	0.18606894	-0.026697848	-0.1805891	0.29852265
0.15383199	-0.18781862	0.04826822	-0.5758875	-0.004841004	0.021680247	0.34888977	0.38975742	0.38455904	0.26809978	-0.07760767	-0.29827932	-0.0050680093	0.24478458	0.14095312	0.005049807	-0.25615674	0.023514237	-0.4302248	-0.014618824	-0.260333	0.06442276	-0.29855162	0.26323736	-0.30029508	-0.015637266	0.01863718	0.20330629	0.06909759	-0.35719624	-0.13360009	0.74854374	0.20612285	-0.06751154	0.31923503	-0.042072613	0.37815002	0.3720356	-0.09986954	0.33677393	-0.25002453	0.29119402	-0.08021753	0.40057984	0.2650113	-0.36031726	0.16605172	-0.02499729
0.09456856	-0.147996	0.040249318	-0.12351571	-0.015414669	0.27067268	-0.09442555	-0.12452663	-0.34070662	0.1385668	0.059313007	-0.06873866	0.23936598	-0.402267	0.037585676	-0.20809487	-0.24472533	0.18417458	-0.11510505	-0.21533884	-0.13082452	-0.034410853	-0.19731367	0.02852893	0.30898577	-0.18118383	0.1525726	0.01573618	-0.05351359	0.09497875	-0.12540314	-0.18475305	-0.06762132	-0.2032898	-0.100902736	0.38287652	-0.10916083	-0.19441415	0.12710756	0.15109383	0.28344414	-0.13489181	-0.31602934	-0.10645351	-0.31611478	0.33341607	0.35104784	0.19748907
0.49476486	1.0091271	-0.22184625	-0.08583048	-0.31389448	-0.07156329	-0.22513363	0.31390172	-0.37069538	-0.585335	-0.33517718	-0.619619	0.16283736	0.6443163	-0.004404246	-0.18720219	0.10458167	-0.19175445	-0.22026093	0.12437406	-0.26461175	-0.17611368	-0.25885552	0.37053725	-0.56465745	-0.3444484	0.2627658	0.383227	-0.45620012	0.18078336	-0.5718991	0.7865025	-0.18510757	0.39444083	0.42918712	0.39989096	-0.0050363266	-0.005922198	0.1477631	-0.09110856	-0.24277222	-0.057088554	-0.5728089	0.17552073	0.06538549	-0.4113563	-0.5212294	-0.08895552
-0.12519398	0.26156878	-0.055089127	-0.031373054	0.42520195	0.16467087	-0.046375517	-0.058042254	0.21502633	-0.2605889	0.082546	-0.00434502	0.2849239	0.20523766	0.20555967	0.09529873	-0.17079014	0.1844522	-0.21960926	0.19275106	-0.1864938	-0.33040988	-0.07909913	-0.3629202	0.10420037	0.04465157	-0.42278618	0.21369071	0.30312985	0.14743868	-0.012567132	0.10862846	0.045937147	0.20848608	0.3859522	-0.10787306	0.17338091	-0.12262047	0.008752734	-0.00979565	0.106645346	0.19929776	0.36327732	-0.37596023	-0.074893445	0.14167053	-0.03841789	0.08093599
-0.3204261	-0.028206123	-0.20512193	0.3232388	0.16993192	0.3641612	-0.33919975	-0.2738328	-0.121918336	-0.07535944	0.16143139	0.19046703	0.10257321	-0.2156279	0.09657115	-0.043608367	0.26746657	-0.1673804	-0.07917534	0.23465796	-0.22632955	0.1976303	-0.24154665	0.2103288	-0.07514757	-0.036904015	-0.27579996	-0.3740065	0.08830368	-0.17346281	-0.20484412	-0.30052266	-0.0672068	-0.0802685	0.26054117	0.09534575	-0.5104916	-0.46674547	-0.28969488	-0.29012686	0.13687481	0.4914986	0.110357784	-0.13286571	0.22534432	0.23492637	-0.0199446	-0.52379227
-0.58877724	0.19570859	-0.19606543	-0.003174918	-0.094268404	0.18389738	0.42922145	-0.22908409	-0.13777915	-0.13177478	-0.14069957	-0.20702994	0.12212068	-0.170982	0.12775406	0.070955716	0.20287542	-0.31269476	0.28781593	-0.32908934	-0.016678184	-0.14642097	-0.19818527	-0.4362576	0.023485625	0.13833228	-0.11876945	-0.08488851	0.092673056	-0.30313802	0.039633203	-0.022296432	0.06369974	-0.026198603	0.052398786	-0.41083035	-0.49635035	-0.2702499	-0.0581361	0.015439848	-0.34963033	-0.20687644	-0.021541914	0.39784294	-0.054211847	-0.05870382	0.017050248	0.2840291
0.25948814	0.27044234	-0.5385859	-0.6234319	0.1559138	0.06655879	0.5171454	0.18278015	0.20508315	-0.43242353	-0.48693532	-0.33356348	-0.100370206	0.067817576	0.5678533	0.102620386	-0.029712403	-0.086232	0.30967748	0.37302268	-0.14123797	-0.30531946	-0.40806356	0.21534215	-0.11279968	-0.07556253	-0.29715377	-0.19688505	0.23032287	-0.5448189	-0.008228642	-0.05197652	-0.06454561	-0.18397175	0.12843783	0.41177812	-0.26760653	0.2661883	0.249217	-0.28803536	-0.31164044	0.15328932	-0.0049683084	-0.050653372	0.4745434	0.35639527	0.6703596	0.13204549
0.21504647	0.41492033	0.10957533	0.025670027	0.24663077	-0.26239225	0.027373882	-0.21903671	0.049418457	0.21574807	0.035539217	-0.068558216	0.04219494	-0.022221796	0.22798757	0.3696005	-0.17689507	0.10098296	-0.1867436	-0.048642043	-0.23531494	0.1149814	0.20885445	0.16906376	-0.17081375	0.2711172	-0.15182532	0.1892059	0.19233288	0.17350762	-0.179495	0.3692691	0.28657386	-0.37909216	-0.21604578	0.20351346	-0.25024208	0.17021145	0.092025556	0.024506437	-0.25390288	-0.15564424	-0.22590457	-0.27581406	-0.12524237	-0.054356415	-0.0142029	-0.23776989
0.016638279	0.37827617	-0.06884947	-0.28580073	0.057410292	0.15827084	0.07567486	0.39858702	0.09432856	-0.5548804	-0.4227678	-0.37877274	-0.017695	-0.07067457	-0.083736405	-0.121884115	-0.016385173	-0.46390828	-0.3281192	-0.1066879	-0.38452154	-0.34222245	-0.2346186	0.048308823	-0.34283245	-0.32367536	0.24353273	-0.37515435	-0.31984025	0.5052678	-0.40633646	-0.09129535	-0.065833956	-0.20536183	0.14642642	-0.23139827	0.088169076	0.24920169	-0.42280537	0.26110765	-0.1706325	-0.27498022	0.52107644	-0.15908448	0.21882899	0.0036084806	0.030128265	-0.29106158
-0.3276626	-0.044823453	0.25650936	-0.21391557	0.25282863	-0.26803613	0.4827916	0.12983422	-0.26291186	0.07237881	-0.45748112	-0.17835571	0.19370963	-0.23126327	0.059521906	-0.19171214	-0.35519832	0.11357879	-0.6070283	-0.03537034	-0.16982424	0.11747916	-0.09750051	-0.1347152	0.14516722	-0.441435	-0.043654237	-0.5121493	-0.30619293	0.49653226	-0.08845156	0.35221335	0.12849207	-0.050483596	-0.13716795	0.14173685	0.36832702	-0.056593783	-0.29046825	-0.25183585	0.037969463	-0.042384487	0.14935207	-0.0133935725	0.020944212	-0.07739261	0.091158845	-0.09910551
0.28706098	0.1749815	-0.38415045	-0.04863815	0.12892647	0.10256317	0.46771562	-0.09797849	-0.23611619	-0.4842058	0.27044302	0.018102089	-0.021317957	0.34915847	-0.065686636	-0.52073914	-0.2879783	-0.40137357	-0.5703789	-0.5707418	-0.38102525	-0.13227431	-0.06401274	-0.09873854	-0.6268712	0.042528845	0.18736185	0.16764054	0.011058933	0.12048287	-0.006407885	0.39574432	-0.14820385	-0.037942626	0.045681085	0.27987033	-0.066493414	0.18941239	-0.19907534	0.10947821	-0.14255646	-0.24310409	0.20589733	0.39585075	-0.13170385	-0.19046807	-0.14256114	0.17183429
-0.070509605	-0.060173668	0.05665327	0.09503648	-0.029999435	0.30481794	0.0844006	-0.15813544	0.1046732	-0.31258035	-0.29843545	-0.055357065	-0.45075798	-0.27288812	0.25641474	-0.02286376	-0.031752795	-0.07469816	0.26946175	-0.045379687	-0.19008379	-0.22158876	-0.08817981	-0.0005872338	-0.1919931	-0.4321008	-0.18721062	-0.13417462	0.08503632	0.1838372	0.33782828	0.3161109	-0.05344601	-0.52841145	-0.00063822436	0.22172779	-0.554011	0.13833244	-0.30037147	-0.07537754	-0.1773406	0.11850461	0.24151409	0.5803854	0.13817012	0.42291805	0.24928327	0.014799372
-0.24593306	0.022700433	-0.25867274	0.15241791	0.35289323	-0.15685478	0.21353166	0.12999322	0.34771228	-0.30387145	0.19077088	0.26714984	0.14193165	0.022669438	-0.028667087	-0.23659222	0.2773346	0.06211669	-0.12125655	-0.16922568	-0.14968595	0.14315593	0.34590447	0.153301	-0.30782846	-0.11411583	0.09279854	0.23282051	-0.19068994	0.09057694	0.05362022	-0.1407623	0.016648632	0.38213983	0.16383009	-0.24033968	0.065150425	-0.13006061	-0.24147779	0.061794028	-0.16661379	0.08066201	-0.10972134	-0.019938122	-0.06660561	0.4178062	-0.061021812	-0.2306893
-0.20690688	0.045384213	-0.046558578	0.0085894875	-0.14218728	0.25177363	-0.29195789	0.16676785	-0.3595772	-0.27720466	0.43294185	-0.06975367	0.63432086	-0.2564164	-0.14851522	-0.17035855	0.45795387	-0.07667495	-0.011000166	0.22795708	-0.2966961	-0.29348943	-0.014844006	-0.01211121	-0.09146092	-0.4379666	-0.042508047	-0.20989242	-0.20650673	0.637334	0.14521618	0.4502107	0.10396583	-0.42995745	0.16211975	0.04233326	0.24609682	-0.5130821	-0.26688918	-0.040311657	-0.20617013	0.2326092	0.05216318	-0.030466255	0.11575541	-0.37147683	-0.32603815	0.043619204
0.15271194	0.31279603	0.13115127	-0.06417835	0.17754187	0.15471002	0.31857	0.092045695	-0.015092335	-0.21831064	-0.04302828	-0.28780344	-0.14201443	-0.36011672	-0.33546507	0.38881058	0.2616454	0.028924422	-0.47895902	-0.429389	-0.21277441	-0.22907168	-0.15602617	0.3939368	-0.068857	0.18777457	-0.27255848	-0.42830157	-0.15002094	0.4642795	-0.09137879	0.74190867	-0.021962462	-0.35465464	-0.020260384	0.16625981	-0.12483192	0.10332372	-0.42669198	-0.08143839	-0.29669377	0.21918209	0.16791843	0.44799244	0.2670396	-0.42053673	0.104544945	-0.26153308
-0.1022608	-0.13210472	0.10971745	0.19357607	-0.05447894	-0.118454814	-0.22121888	0.37131977	-0.13721117	-0.08571493	-0.15911412	0.047640946	0.18058969	-0.06966873	0.13699299	-0.14752923	0.23211755	0.22354391	0.15185142	-0.16111793	0.2193553	0.059792392	-0.07393253	-0.10581044	-0.068734966	-0.10809218	0.34227988	0.00027613924	0.5471084	-0.3745812	-0.19359356	0.16085084	0.22061808	0.13136715	-0.24628413	0.23173665	0.19692704	-0.55616003	0.348246	-0.054863174	-0.36489192	-0.2842477	-0.13718025	0.40344468	0.15125515	0.28297397	0.02428839	-0.19188794
-0.30700666	0.025867179	-0.095079064	-0.13046364	0.29024446	0.26217526	-0.1084416	-0.12209947	0.119137205	0.1907729	-0.2570003	0.20279603	0.22946711	-0.23476116	0.010268139	-0.18667111	0.3339129	0.4791509	0.092198536	0.10607715	-0.29116258	0.0938519	0.2052256	0.07236033	-0.030016044	-0.047385927	-0.048916984	-0.008918312	0.40203983	-0.24086848	-0.22220618	-0.31845403	-0.18147944	0.29531842	0.30159155	-0.051676996	0.22545479	-0.056442663	-0.3509601	0.02486837	0.3271358	0.100406945	0.084457986	-0.19584142	0.08635096	0.25226447	-0.102585204	-0.34556976
-0.26728392	0.19676699	-0.16057986	0.19242628	0.14165075	-0.037737794	0.15820889	0.2094018	0.27763915	-0.41823444	0.10064246	0.33556074	0.25539878	-0.46599966	-0.004272356	-0.21358176	-0.0072151176	-0.01960903	0.03144353	0.1136927	-0.34569746	-0.17583406	0.1717828	-0.02115409	0.091248974	0.007816649	0.23235686	-0.15810587	0.20571692	-0.37004006	-0.30059388	-0.18385404	-0.20140585	0.2587449	0.11451047	0.30650097	0.2643805	-0.51957816	0.008324816	-0.1164858	-0.21781318	-0.21793865	-0.12004721	0.07196207	0.07382846	-0.00041109457	0.048809856	0.23380172
-0.11060723	-0.07490738	-0.04046964	0.15077733	-0.34269574	0.5241159	-0.081382744	0.11756125	-0.43455136	-0.28580627	-0.49232668	-0.28365436	0.61246324	-0.5017503	0.10842865	-0.06637949	-0.5477966	-0.5352269	0.26017535	0.1192459	0.008142118	-0.507441	0.028244909	-0.10253676	-0.16331318	-0.30029303	0.013451332	-0.07309696	0.08906815	-0.40410593	0.46911237	0.26962206	-0.44718245	0.14248997	0.36940005	0.035259854	-0.14472584	0.097710334	0.13118868	0.36466253	0.26780573	0.18009497	-0.055314887	0.41638368	-0.23112619	-0.5031991	0.4469554	0.18270268
-0.19410838	0.27873704	-0.36021632	-0.20656295	0.12388672	0.4105054	0.149826	-0.19298847	0.42524597	-0.11632264	-0.066277295	-0.26352578	-0.09412157	-0.19664824	0.24790171	-0.10296881	-0.17466976	-0.041268993	0.22829942	0.22356081	0.28017768	-0.028232846	-0.2723877	0.07918404	0.37580308	0.08310786	-0.12515084	-0.09104553	0.034175497	-0.21490087	0.0353769	-0.19622764	0.07631923	-0.16347195	0.059005156	0.07291589	0.0015413773	0.30364555	-0.27811915	0.19387506	0.056172777	-0.25411755	-0.26667392	-0.082788214	-0.010304752	0.5189235	0.09948107	-0.28120172
0.20710063	0.11950668	-0.018178383	0.12871435	-0.12484852	-0.3419868	-0.01345455	-0.2060811	-0.3180119	-0.0990611	0.35352573	-0.49173465	0.09552446	-0.26964837	-0.23837577	0.24005647	-0.08477874	0.039734602	0.2382021	-0.06976397	0.03678093	0.013706494	-0.22118127	-0.24285305	-0.13145256	-0.33536714	0.32016397	-0.14485268	-0.014716574	-0.15569262	-0.12023795	-0.35214695	0.14923526	0.14777498	0.5195479	0.035618518	-0.29574966	-0.05737339	0.08234027	0.069001004	0.049649462	0.38132426	0.08059075	-0.16709162	0.092658415	-0.014189139	0.39285982	-0.07435044
-0.35020757	0.19095768	-0.026479466	0.25684798	0.102420375	0.20388256	-0.42909133	-0.16059257	-0.059776787	0.31864667	0.27269068	-0.1619261	0.5282509	0.022811508	0.0828535	0.024643065	0.086160466	0.10584856	-0.20057878	-0.013072558	-0.32157046	0.36709926	0.11730898	0.23537616	0.41523898	-0.0922021	-0.24099125	-0.20823896	-0.1175993	-0.31359327	-0.3103061	-0.23094442	0.15926465	-0.054480743	0.32583386	0.32047993	-0.06033331	-0.32819256	-0.21131392	-0.14115024	0.04211033	0.37424892	0.1360048	0.10737406	0.076853864	-0.03249253	0.058678176	-0.29092923
-0.15550238	-0.02507415	-0.2910317	0.15278742	0.1864377	0.102058895	-0.2525759	0.25322232	-0.38371328	-0.45651934	-0.5231938	-0.019224083	0.06162831	-0.35635474	-0.104241416	0.30590844	-0.0289088	0.002426964	0.011838614	-0.00094035896	0.25888875	-0.38323703	0.13290702	-0.079965934	-0.19559571	-0.3560677	-0.027093848	-0.26581714	0.18952784	-0.41604885	0.28418463	0.38446036	-0.14791067	0.11723143	0.21102859	0.3667996	-0.0490873	0.13466783	0.08030845	0.58075356	0.16427666	0.15386052	-0.42506585	0.26301083	-0.29259703	-0.098667085	0.08774821	-0.03294213
-0.09746646	-0.13364522	0.113504335	-0.048872396	0.17271946	-0.06391128	0.13445726	-0.19977161	-0.08495215	-0.22530684	-0.10021628	0.14145483	-0.40927267	-0.4145819	0.11805792	0.075181186	-0.01812548	-0.3467515	-0.22771262	-0.38585183	0.46721947	-0.3693028	-0.19507185	-0.12515533	-0.053194318	-0.32592675	-0.24551997	-0.14348589	0.17644988	0.17698708	0.003240229	0.01497715	0.20378473	0.07526305	-0.042090714	0.164719	-0.0298179	0.1352577	-0.040699445	-0.05111688	-0.010513474	0.15107518	0.10075807	0.6229019	-0.4063526	-3.5071047e-05	0.26268834	-0.40319628
0.18308519	0.059182376	0.09277209	-0.38247746	-0.32948437	-0.20024613	0.50462705	0.30274263	0.15906908	0.022901915	-0.15398453	0.37363225	0.16959323	0.18644069	0.081429325	-0.34971404	0.021117872	0.33144987	0.48394838	-0.31888372	-0.10042549	-0.14647259	-0.37272242	-0.20538437	0.25072503	-0.03637727	-0.18890257	-0.12264807	0.13408227	0.023745285	-0.07941119	0.15597242	-0.32646927	-0.23916572	-0.07544304	-0.15394396	0.25495037	-0.24038108	0.22169903	-0.0766567	-0.5578909	-0.06307047	-0.41168788	0.37691057	0.2849765	-0.39233768	0.050535228	-0.40807658
0.20169786	0.16215134	-0.23381996	-0.09867904	0.1289703	0.032213148	0.37123933	0.17363629	0.124038905	-0.36049786	0.02189643	0.002577262	0.0078488495	-0.30185014	0.32444203	-0.46307763	0.12606627	-0.34726298	-0.37335765	-0.2461803	0.1408472	0.4410861	-0.16355036	0.146596	-0.25424725	0.2484485	0.06406416	0.0713702	0.04955187	0.02910908	0.37951195	-0.093298085	0.02816856	0.43798175	0.20139483	-0.20818822	-0.12415012	-0.48839366	-0.28468847	-0.061093256	-0.25604331	0.15598492	-0.17464098	-0.04725293	-0.13775714	0.3216184	-0.26730424	-0.25075772
0.20441777	0.2554683	0.182804	-0.17265162	-0.28029665	0.4931185	-0.0989686	0.21601206	-0.03213743	-0.20893179	0.05982684	-0.447798	0.1120293	-0.33100313	0.4050601	-0.30250627	-0.061077755	0.08662813	-0.006842358	0.10300238	0.17444575	0.056465577	-0.47523597	-0.14185786	0.3188722	0.20355263	-0.11710901	0.043596134	0.15782978	-0.015467509	0.28121892	-0.4307099	-0.14343995	-0.2566151	0.174143	0.22271943	-0.13877055	0.23969756	-0.11161143	0.060386114	0.005383305	0.48639584	0.55077744	-0.048747897	-0.12850028	-0.045600485	-0.18684204	-0.03225177
0.24445368	0.4065206	-0.033195734	-0.116263874	-0.023953209	0.3196815	0.5547729	-0.09310362	0.11050233	-0.18000126	-0.33755943	-0.19238307	0.100978255	-0.22256915	0.039838515	0.10723476	-0.031601816	-0.26584458	-0.12500224	-0.058294192	-0.15897298	-0.51930255	0.3009998	-0.4163171	-0.25541577	-0.2654391	-0.19672547	0.08183301	0.16059406	0.24911548	0.014761345	-0.120428994	0.07835353	-0.15156291	0.47904876	0.32846856	0.07186736	-0.1551336	-0.30507338	0.05450502	0.059493996	0.25481164	-0.10108796	0.1862307	0.35255826	0.23271184	0.14741792	-0.17958981
0.15985528	-0.01421686	-0.09559441	0.20513254	-0.27805915	0.08199107	0.55786693	0.07081	-0.4461537	-0.5159172	0.17199522	0.1170174	-0.28960368	0.16922393	-0.29050747	-0.06978434	-0.10917709	-0.014526802	-0.15512781	0.0005566939	0.34259692	-0.53807646	-0.0514896	-0.1832702	-0.47807726	-0.63744414	-0.14868069	0.22124681	-0.5030273	-0.08838535	-0.15722923	0.1966816	-0.15948555	0.1131951	0.5826516	0.31224924	-0.25796494	-0.33574477	0.23527138	0.29713956	-0.043077085	0.10834132	0.011415209	-0.035350204	0.13609268	0.18609703	-0.026864842	0.28461558
0.3316987	-0.18424542	-0.17731062	-0.3931828	0.34483874	-0.07296548	0.40926996	0.2564132	0.11544107	-0.31157917	-0.10602719	-0.6355769	0.04344781	0.05022536	-0.12305562	-0.14146744	0.3369114	0.0024288667	0.21747148	-0.07441487	0.09442057	-0.19696818	-0.024622552	0.19192782	0.2469715	-0.19794339	0.042159762	-0.17395073	-0.11736343	-0.21220562	0.086553484	0.055124428	0.0027878603	0.45471993	0.272971	-0.12157972	-0.36616018	-0.10693272	0.288193	0.09596042	-0.05079969	0.26640832	0.12914576	-0.19867884	-0.14671676	-0.2904825	0.10097443	0.23226844
-0.12342644	-0.27030298	-0.22922708	-0.6789141	0.024023201	-0.18178244	0.37811878	0.3369196	-0.10257511	-0.25492507	-0.18527962	-0.004505952	0.28762373	0.5042276	0.41384572	-0.6925548	-0.54181993	-0.10239572	-0.21596774	0.20759143	0.202981	-0.10846653	-0.09941457	-0.15630722	-0.27698767	0.12097174	-0.20647527	-0.34710315	0.06286603	-0.15908226	0.111150675	0.08954479	-0.41418365	-0.013358277	0.124151744	0.28107607	0.16832235	0.28341764	0.011265623	-0.36010155	-0.1688963	0.15965602	0.13226318	0.24264267	0.037234705	0.19284207	0.32681707	-0.3111524
0.18705457	0.058942	0.026475258	0.14881885	-0.21081494	-0.30980432	-0.22262642	-0.057658117	-0.3454878	-0.15564218	0.29672164	-0.333175	-0.10690904	-0.46584943	-0.27332413	0.16852245	-0.52249396	0.18750155	0.26490977	0.0142132845	0.24594381	0.032657757	-0.23873967	-0.078481555	0.042174667	-0.22034559	-0.012412059	-0.043926444	0.3912753	-0.12198136	0.1238372	-0.10267532	-0.14765693	0.09151818	0.1429987	-0.078917556	-0.124333255	-0.10372783	-0.2626509	0.16413586	-0.17292707	0.10277804	-0.22126013	0.20628045	0.21399155	0.1366898	0.3623962	0.10267726
-0.31104892	0.4276741	0.23648196	0.3894948	-0.22417319	0.14832017	0.2714867	0.15464804	-0.26205283	-0.03120973	0.16214548	0.04476808	0.1758584	-0.3035458	0.20479576	-0.04013157	0.0010064706	0.15383315	-0.06906761	0.009013912	-0.14633267	0.014628333	-0.12715317	0.046563845	0.10392622	-0.24968022	-0.3877295	0.16202533	0.16226757	-0.0023764013	0.1386096	-0.229229	-0.4221465	-0.12731908	-0.04777053	-0.310893	0.18362655	0.0144315	-0.03562348	0.29370898	-0.36206162	-0.19037232	-0.05237181	-0.05258499	0.3575263	0.059418272	-0.061867468	0.23281465
